{"learner":{"attributes":{"scikit_learn":"{\"_estimator_type\": \"classifier\"}"},"feature_names":["CreditScore","Gender","Age","Tenure","Balance","NumOfProducts","HasCrCard","IsActiveMember","EstimatedSalary","Geography_Germany","Geography_Spain"],"feature_types":["int","int","int","int","int","int","int","int","int","int","int"],"gradient_booster":{"model":{"cats":{"enc":[],"feature_segments":[],"sorted_idx":[]},"gbtree_model_param":{"num_parallel_tree":"1","num_trees":"100"},"iteration_indptr":[0,1,2,3,4,5,6,7,8,9,10,11,12,13,14,15,16,17,18,19,20,21,22,23,24,25,26,27,28,29,30,31,32,33,34,35,36,37,38,39,40,41,42,43,44,45,46,47,48,49,50,51,52,53,54,55,56,57,58,59,60,61,62,63,64,65,66,67,68,69,70,71,72,73,74,75,76,77,78,79,80,81,82,83,84,85,86,87,88,89,90,91,92,93,94,95,96,97,98,99,100],"tree_info":[0,0,0,0,0,0,0,0,0,0,0,0,0,0,0,0,0,0,0,0,0,0,0,0,0,0,0,0,0,0,0,0,0,0,0,0,0,0,0,0,0,0,0,0,0,0,0,0,0,0,0,0,0,0,0,0,0,0,0,0,0,0,0,0,0,0,0,0,0,0,0,0,0,0,0,0,0,0,0,0,0,0,0,0,0,0,0,0,0,0,0,0,0,0,0,0,0,0,0,0],"trees":[{"base_weights":[2.9314347E-3,-6.401181E-1,9.3983495E-1,-9.382418E-1,-1.8222463E-1,1.3877649E0,3.726441E-1,-2.4126445E-1,-1.2396415E-1,-9.063986E-2,9.1362916E-2,1.8886138E-1,3.360741E-1,1.1377837E-1,-1.8741177E-1],"categories":[],"categories_nodes":[],"categories_segments":[],"categories_sizes":[],"default_left":[0,0,0,0,0,0,0,0,0,0,0,0,0,0,0],"id":0,"left_children":[1,3,5,7,9,11,13,-1,-1,-1,-1,-1,-1,-1,-1],"loss_changes":[1.9122032E3,2.5482477E2,3.239585E2,9.1479614E1,1.3079138E2,8.276355E1,1.5086462E2,0E0,0E0,0E0,0E0,0E0,0E0,0E0,0E0],"parents":[2147483647,0,0,1,1,2,2,3,3,4,4,5,5,6,6],"right_children":[2,4,6,8,10,12,14,-1,-1,-1,-1,-1,-1,-1,-1],"split_conditions":[4.3E1,3.7E1,1E0,1.03549E5,1E0,4.8E1,6.3E1,-2.4126445E-1,-1.2396415E-1,-9.063986E-2,9.1362916E-2,1.8886138E-1,3.360741E-1,1.1377837E-1,-1.8741177E-1],"split_indices":[2,2,7,4,9,2,2,0,0,0,0,0,0,0,0],"split_type":[0,0,0,0,0,0,0,0,0,0,0,0,0,0,0],"sum_hessian":[3.163421E3,1.8761976E3,1.2872234E3,1.1318485E3,7.4434906E2,7.141991E2,5.730243E2,6.052242E2,5.266243E2,5.2482434E2,2.1952472E2,2.9367462E2,4.2052448E2,5.0147437E2,7.1549904E1],"tree_param":{"num_deleted":"0","num_feature":"11","num_nodes":"15","size_leaf_vector":"1"}},{"base_weights":[-4.0490646E-3,-5.5589294E-1,7.231702E-1,-6.637266E-1,3.2242855E-1,1.0213946E0,1.9200507E-1,-3.7536465E-2,-2.5330037E-1,2.1412735E-1,-4.2089783E-2,-8.44717E-2,3.4410557E-1],"categories":[],"categories_nodes":[],"categories_segments":[],"categories_sizes":[],"default_left":[0,0,0,0,0,0,0,0,0,0,0,0,0],"id":1,"left_children":[1,3,5,7,-1,9,11,-1,-1,-1,-1,-1,-1],"loss_changes":[1.2715284E3,4.2578687E2,2.1425427E2,4.911969E2,0E0,5.4924988E1,4.7323087E2,0E0,0E0,0E0,0E0,0E0,0E0],"parents":[2147483647,0,0,1,1,2,2,3,3,5,5,6,6],"right_children":[2,4,6,8,-1,10,12,-1,-1,-1,-1,-1,-1],"split_conditions":[4.2E1,3E0,2E0,2E0,3.2242855E-1,6.7E1,3E0,-3.7536465E-2,-2.5330037E-1,2.1412735E-1,-4.2089783E-2,-8.44717E-2,3.4410557E-1],"split_indices":[2,5,5,5,0,2,5,0,0,0,0,0,0],"split_type":[0,0,0,0,0,0,0,0,0,0,0,0,0],"sum_hessian":[3.1588406E3,1.7974298E3,1.3614106E3,1.7160095E3,8.142029E1,8.6772577E2,4.936848E2,9.6338654E2,7.5262305E2,8.357821E2,3.1943676E1,3.542602E2,1.3942464E2],"tree_param":{"num_deleted":"0","num_feature":"11","num_nodes":"13","size_leaf_vector":"1"}},{"base_weights":[3.6668396E-3,-4.3278286E-1,6.580246E-1,-6.13772E-1,3.467573E-2,1.021962E0,2.1989347E-1,-6.581632E-2,-1.7209665E-1,-7.450448E-2,6.1052937E-2,1.5253367E-1,2.775677E-1,8.396938E-2,-1.0913799E-1],"categories":[],"categories_nodes":[],"categories_segments":[],"categories_sizes":[],"default_left":[0,0,0,0,0,0,0,0,0,0,0,0,0,0,0],"id":2,"left_children":[1,3,5,7,9,11,13,-1,-1,-1,-1,-1,-1,-1,-1],"loss_changes":[8.8328735E2,1.5753961E2,1.9504785E2,9.1392395E1,5.7868443E1,5.6468933E1,8.818258E1,0E0,0E0,0E0,0E0,0E0,0E0,0E0,0E0],"parents":[2147483647,0,0,1,1,2,2,3,3,4,4,5,5,6,6],"right_children":[2,4,6,8,10,12,14,-1,-1,-1,-1,-1,-1,-1,-1],"split_conditions":[4.3E1,1E0,1E0,1E0,3.4E1,5.1E1,6E1,-6.581632E-2,-1.7209665E-1,-7.450448E-2,6.1052937E-2,1.5253367E-1,2.775677E-1,8.396938E-2,-1.0913799E-1],"split_indices":[2,9,7,1,2,2,2,0,0,0,0,0,0,0,0],"split_type":[0,0,0,0,0,0,0,0,0,0,0,0,0,0,0],"sum_hessian":[3.0820305E3,1.8489592E3,1.2330713E3,1.3333076E3,5.1565155E2,6.6868066E2,5.643906E2,6.263079E2,7.0699976E2,2.036332E2,3.1201834E2,4.0196613E2,2.6671457E2,4.503368E2,1.140538E2],"tree_param":{"num_deleted":"0","num_feature":"11","num_nodes":"15","size_leaf_vector":"1"}},{"base_weights":[-1.0023604E-2,-4.66108E-1,4.339127E-1,-6.158082E-1,-5.2161865E-2,7.7405924E-1,2.3263719E-2,-8.4240764E-2,-1.639248E-1,4.861715E-2,-8.000591E-2,9.698821E-2,2.2627036E-1,-5.127405E-2,1.23239174E-1],"categories":[],"categories_nodes":[],"categories_segments":[],"categories_sizes":[],"default_left":[0,0,0,0,0,0,0,0,0,0,0,0,0,0,0],"id":3,"left_children":[1,3,5,7,9,11,13,-1,-1,-1,-1,-1,-1,-1,-1],"loss_changes":[6.124194E2,9.1684326E1,2.1305234E2,4.0431793E1,4.211062E1,8.20242E1,1.1727717E2,0E0,0E0,0E0,0E0,0E0,0E0,0E0,0E0],"parents":[2147483647,0,0,1,1,2,2,3,3,4,4,5,5,6,6],"right_children":[2,4,6,8,10,12,14,-1,-1,-1,-1,-1,-1,-1,-1],"split_conditions":[4E1,1E0,1E0,1E0,1E0,4.8E1,1E0,-8.4240764E-2,-1.639248E-1,4.861715E-2,-8.000591E-2,9.698821E-2,2.2627036E-1,-5.127405E-2,1.23239174E-1],"split_indices":[2,9,7,7,7,2,9,0,0,0,0,0,0,0,0],"split_type":[0,0,0,0,0,0,0,0,0,0,0,0,0,0,0],"sum_hessian":[3.014552E3,1.4879193E3,1.5266326E3,1.0891744E3,3.987449E2,8.3124243E2,6.953902E2,5.675316E2,5.2164276E2,2.1494493E2,1.8379996E2,4.6751688E2,3.6372556E2,4.7331888E2,2.2207132E2],"tree_param":{"num_deleted":"0","num_feature":"11","num_nodes":"15","size_leaf_vector":"1"}},{"base_weights":[5.1557287E-3,-1.1000598E-1,2.931094E-1,2.8095877E-1,-7.467842E-1,1.0895076E-1,-1.0092265E-2,-2.322192E-1,-6.469419E-2],"categories":[],"categories_nodes":[],"categories_segments":[],"categories_sizes":[],"default_left":[0,0,0,0,0,0,0,0,0],"id":4,"left_children":[1,3,-1,5,7,-1,-1,-1,-1],"loss_changes":[4.9956604E2,6.8500165E2,0E0,1.4957884E2,1.8021466E2,0E0,0E0,0E0,0E0],"parents":[2147483647,0,0,1,1,3,3,4,4],"right_children":[2,4,-1,6,8,-1,-1,-1,-1],"split_conditions":[3E0,2E0,2.931094E-1,1E0,5.4503E4,1.0895076E-1,-1.0092265E-2,-2.322192E-1,-6.469419E-2],"split_indices":[5,5,0,7,4,0,0,0,0],"split_type":[0,0,0,0,0,0,0,0,0],"sum_hessian":[2.9525513E3,2.7403916E3,2.1215976E2,1.6986746E3,1.041717E3,9.457223E2,7.529522E2,5.2085803E2,5.20859E2],"tree_param":{"num_deleted":"0","num_feature":"11","num_nodes":"9","size_leaf_vector":"1"}},{"base_weights":[2.811224E-4,-2.4563538E-1,5.1906556E-1,-3.3988756E-1,2.528265E-1,8.452929E-1,1.8092822E-1,-3.926365E-4,-1.6357233E-1,1.2275374E-1,2.1684979E-1,1.3650476E-2,2.3554449E-1],"categories":[],"categories_nodes":[],"categories_segments":[],"categories_sizes":[],"default_left":[0,0,0,0,0,0,0,0,0,0,0,0,0],"id":5,"left_children":[1,3,5,7,-1,9,11,-1,-1,-1,-1,-1,-1],"loss_changes":[3.6940723E2,2.8036118E2,1.00993744E2,2.9813165E2,0E0,2.105307E1,5.062406E1,0E0,0E0,0E0,0E0,0E0,0E0],"parents":[2147483647,0,0,1,1,2,2,3,3,5,5,6,6],"right_children":[2,4,6,8,-1,10,12,-1,-1,-1,-1,-1,-1],"split_conditions":[4.5E1,3E0,1E0,2E0,2.528265E-1,5.1E1,3E0,-3.926365E-4,-1.6357233E-1,1.2275374E-1,2.1684979E-1,1.3650476E-2,2.3554449E-1],"split_indices":[2,5,7,5,0,2,5,0,0,0,0,0,0],"split_type":[0,0,0,0,0,0,0,0,0,0,0,0,0],"sum_hessian":[2.883408E3,1.9566249E3,9.2678296E2,1.8459238E3,1.10701096E2,4.663766E2,4.6040637E2,1.0855559E3,7.603679E2,2.4805954E2,2.1831706E2,4.1934946E2,4.1056934E1],"tree_param":{"num_deleted":"0","num_feature":"11","num_nodes":"13","size_leaf_vector":"1"}},{"base_weights":[-0E0,-8.204785E-2,2.3929568E-1,1.9303216E-1,-5.601109E-1,-3.3969332E-3,1.2534311E-1,-1.8770069E-1,-3.9981153E-2],"categories":[],"categories_nodes":[],"categories_segments":[],"categories_sizes":[],"default_left":[0,0,0,0,0,0,0,0,0],"id":6,"left_children":[1,3,-1,5,7,-1,-1,-1,-1],"loss_changes":[2.7591464E2,3.458033E2,0E0,1.5250826E2,1.288414E2,0E0,0E0,0E0,0E0],"parents":[2147483647,0,0,1,1,3,3,4,4],"right_children":[2,4,-1,6,8,-1,-1,-1,-1],"split_conditions":[3E0,2E0,2.3929568E-1,1E0,4.4928E4,-3.3969332E-3,1.2534311E-1,-1.8770069E-1,-3.9981153E-2],"split_indices":[5,5,0,9,4,0,0,0,0],"split_type":[0,0,0,0,0,0,0,0,0],"sum_hessian":[2.793073E3,2.617669E3,1.7540399E2,1.662149E3,9.5551996E2,1.1215312E3,5.4061774E2,4.607268E2,4.9479315E2],"tree_param":{"num_deleted":"0","num_feature":"11","num_nodes":"9","size_leaf_vector":"1"}},{"base_weights":[1.5089576E-3,-3.5551026E-1,2.9649642E-1,-4.1048795E-1,1.7553443E-1,4.9019E-1,-3.4033697E-2,-4.2416118E-2,-1.4187758E-1,6.2633164E-2,1.6350015E-1,-5.7851773E-2,2.1281925E-1],"categories":[],"categories_nodes":[],"categories_segments":[],"categories_sizes":[],"default_left":[0,0,0,0,0,0,0,0,0,0,0,0,0],"id":7,"left_children":[1,3,5,7,-1,9,11,-1,-1,-1,-1,-1,-1],"loss_changes":[2.888357E2,8.537224E1,9.680037E1,6.8946915E1,0E0,5.2648712E1,1.5724359E2,0E0,0E0,0E0,0E0,0E0,0E0],"parents":[2147483647,0,0,1,1,2,2,3,3,5,5,6,6],"right_children":[2,4,6,8,-1,10,12,-1,-1,-1,-1,-1,-1],"split_conditions":[3.9E1,3E0,2E0,2E0,1.7553443E-1,1E0,3E0,-4.2416118E-2,-1.4187758E-1,6.2633164E-2,1.6350015E-1,-5.7851773E-2,2.1281925E-1],"split_indices":[2,5,5,5,0,9,5,0,0,0,0,0,0],"split_type":[0,0,0,0,0,0,0,0,0,0,0,0,0],"sum_hessian":[2.733113E3,1.2345448E3,1.4985682E3,1.1858251E3,4.8719837E1,9.4525226E2,5.53316E2,7.198727E2,4.6595233E2,6.217963E2,3.2345596E2,4.5269507E2,1.0062091E2],"tree_param":{"num_deleted":"0","num_feature":"11","num_nodes":"13","size_leaf_vector":"1"}},{"base_weights":[1.5313405E-3,-1.9154255E-1,4.1117933E-1,-2.4351193E-1,1.7459407E-1,6.938175E-1,1.3110466E-1,-1.2211651E-2,-1.08834855E-1,9.228149E-2,1.9201426E-1,7.34544E-2,-6.803992E-2],"categories":[],"categories_nodes":[],"categories_segments":[],"categories_sizes":[],"default_left":[0,0,0,0,0,0,0,0,0,0,0,0,0],"id":8,"left_children":[1,3,5,7,-1,9,11,-1,-1,-1,-1,-1,-1],"loss_changes":[2.1049121E2,1.0030599E2,6.626625E1,9.3915344E1,0E0,2.2462006E1,4.9240387E1,0E0,0E0,0E0,0E0,0E0,0E0],"parents":[2147483647,0,0,1,1,2,2,3,3,5,5,6,6],"right_children":[2,4,6,8,-1,10,12,-1,-1,-1,-1,-1,-1],"split_conditions":[4.5E1,3E0,1E0,2E0,1.7459407E-1,5.1E1,5.7E1,-1.2211651E-2,-1.08834855E-1,9.228149E-2,1.9201426E-1,7.34544E-2,-6.803992E-2],"split_indices":[2,5,7,5,0,2,2,0,0,0,0,0,0],"split_type":[0,0,0,0,0,0,0,0,0,0,0,0,0],"sum_hessian":[2.6485793E3,1.8002926E3,8.482867E2,1.7210659E3,7.922659E1,4.1675772E2,4.31529E2,1.0769014E3,6.4416455E2,2.3182272E2,1.8493498E2,2.896252E2,1.4190378E2],"tree_param":{"num_deleted":"0","num_feature":"11","num_nodes":"13","size_leaf_vector":"1"}},{"base_weights":[2.5844753E-2,-3.6357915E-1,1.8234843E-1,-3.9530262E-1,4.846753E-1,1.3010608E-1,1.9738194E-1,-5.1651653E-2,-1.2347591E-1,-0E0,1.3295116E-1,6.0031276E-2,-3.925545E-2],"categories":[],"categories_nodes":[],"categories_segments":[],"categories_sizes":[],"default_left":[0,0,0,0,0,0,0,0,0,0,0,0,0],"id":9,"left_children":[1,3,5,7,9,11,-1,-1,-1,-1,-1,-1,-1],"loss_changes":[1.5724644E2,2.0748749E1,7.574163E1,2.0119194E1,2.031124E0,9.6879196E1,0E0,0E0,0E0,0E0,0E0,0E0,0E0],"parents":[2147483647,0,0,1,1,2,2,3,3,4,4,5,5],"right_children":[2,4,6,8,10,12,-1,-1,-1,-1,-1,-1,-1],"split_conditions":[3.5E1,3E0,3E0,2E0,3.8617E4,2E0,1.9738194E-1,-5.1651653E-2,-1.2347591E-1,-0E0,1.3295116E-1,6.0031276E-2,-3.925545E-2],"split_indices":[2,5,5,5,4,5,0,0,0,0,0,0,0],"split_type":[0,0,0,0,0,0,0,0,0,0,0,0,0],"sum_hessian":[2.5726174E3,7.337763E2,1.8388412E3,7.110335E2,2.2742823E1,1.733342E3,1.0549917E2,4.4916803E2,2.6186545E2,8.398649E0,1.4344173E1,1.1418748E3,5.9146716E2],"tree_param":{"num_deleted":"0","num_feature":"11","num_nodes":"13","size_leaf_vector":"1"}},{"base_weights":[9.111202E-3,-3.1906682E-1,1.6490741E-1,-1.033055E-1,-5.568831E-1,4.048686E-1,-7.32629E-2,-4.597467E-2,4.101902E-2,-1.1588299E-1,8.7832995E-3,8.5215606E-2,-1.8076356E-1,3.8038947E-2,-6.958937E-2],"categories":[],"categories_nodes":[],"categories_segments":[],"categories_sizes":[],"default_left":[0,0,0,0,0,0,0,0,0,0,0,0,0,0,0],"id":10,"left_children":[1,3,5,7,9,11,13,-1,-1,-1,-1,-1,-1,-1,-1],"loss_changes":[1.2861188E2,4.054776E1,9.818721E1,1.7136843E1,5.8250427E0,2.5164627E1,6.273574E1,0E0,0E0,0E0,0E0,0E0,0E0,0E0,0E0],"parents":[2147483647,0,0,1,1,2,2,3,3,4,4,5,5,6,6],"right_children":[2,4,6,8,10,12,14,-1,-1,-1,-1,-1,-1,-1,-1],"split_conditions":[3.6E1,1E0,1E0,1E0,3E0,7.2E1,1E0,-4.597467E-2,4.101902E-2,-1.1588299E-1,8.7832995E-3,8.5215606E-2,-1.8076356E-1,3.8038947E-2,-6.958937E-2],"split_indices":[2,7,1,9,5,2,7,0,0,0,0,0,0,0,0],"split_type":[0,0,0,0,0,0,0,0,0,0,0,0,0,0,0],"sum_hessian":[2.508314E3,8.036986E2,1.7046152E3,4.2735403E2,3.7634457E2,8.4946344E2,8.551518E2,3.0620352E2,1.2115051E2,3.6451648E2,1.1828102E1,8.399863E2,9.477115E0,4.354224E2,4.1972937E2],"tree_param":{"num_deleted":"0","num_feature":"11","num_nodes":"15","size_leaf_vector":"1"}},{"base_weights":[2.8011221E-2,-9.443982E-2,3.399208E-1,-1.3188513E-1,7.2887003E-1,4.272658E-1,-6.15173E-1,-8.724304E-4,-7.2659805E-2,2.7885009E-2,1.877182E-1,1.2447909E-1,4.9040444E-2,3.31503E-2,-1.570975E-1],"categories":[],"categories_nodes":[],"categories_segments":[],"categories_sizes":[],"default_left":[0,0,0,0,0,0,0,0,0,0,0,0,0,0,0],"id":11,"left_children":[1,3,5,7,9,11,13,-1,-1,-1,-1,-1,-1,-1,-1],"loss_changes":[9.5485886E1,5.5044083E1,5.9954575E1,5.028795E1,7.840847E0,2.146148E1,9.274385E0,0E0,0E0,0E0,0E0,0E0,0E0,0E0,0E0],"parents":[2147483647,0,0,1,1,2,2,3,3,4,4,5,5,6,6],"right_children":[2,4,6,8,10,12,14,-1,-1,-1,-1,-1,-1,-1,-1],"split_conditions":[4.6E1,3E0,6.6E1,2E0,3.8617E4,1E0,1E0,-8.724304E-4,-7.2659805E-2,2.7885009E-2,1.877182E-1,1.2447909E-1,4.9040444E-2,3.31503E-2,-1.570975E-1],"split_indices":[2,5,2,5,4,7,7,0,0,0,0,0,0,0,0],"split_type":[0,0,0,0,0,0,0,0,0,0,0,0,0,0,0],"sum_hessian":[2.4844163E3,1.784233E3,7.0018317E2,1.711792E3,7.244107E1,6.450065E2,5.517673E1,1.1096974E3,6.0209454E2,2.2446072E1,4.9995003E1,3.0284354E2,3.421629E2,8.851836E0,4.6324894E1],"tree_param":{"num_deleted":"0","num_feature":"11","num_nodes":"15","size_leaf_vector":"1"}},{"base_weights":[8.3687255E-4,1.970882E-1,-1.8743311E-1,1.5797102E-1,1.6908608E-1,-4.523551E-1,-5.5846784E-2,-1.5627801E-2,4.860784E-2,-9.523496E-2,5.9691694E-2,1.9568559E-2,-6.541628E-2],"categories":[],"categories_nodes":[],"categories_segments":[],"categories_sizes":[],"default_left":[0,0,0,0,0,0,0,0,0,0,0,0,0],"id":12,"left_children":[1,3,5,7,-1,9,11,-1,-1,-1,-1,-1,-1],"loss_changes":[9.0286865E1,2.873462E1,4.274681E1,2.31229E1,0E0,8.216469E0,3.539222E1,0E0,0E0,0E0,0E0,0E0,0E0],"parents":[2147483647,0,0,1,1,2,2,3,3,5,5,6,6],"right_children":[2,4,6,8,-1,10,12,-1,-1,-1,-1,-1,-1],"split_conditions":[1E0,3E0,3.6E1,3.5E1,1.6908608E-1,1.8053E5,2E0,-1.5627801E-2,4.860784E-2,-9.523496E-2,5.9691694E-2,1.9568559E-2,-6.541628E-2],"split_indices":[1,5,2,2,0,4,5,0,0,0,0,0,0],"split_type":[0,0,0,0,0,0,0,0,0,0,0,0,0],"sum_hessian":[2.4333442E3,1.1939042E3,1.2394401E3,1.1332888E3,6.0615337E1,4.0475702E2,8.3468304E2,2.9716043E2,8.3612836E2,3.953745E2,9.382505E0,5.324759E2,3.0220715E2],"tree_param":{"num_deleted":"0","num_feature":"11","num_nodes":"13","size_leaf_vector":"1"}},{"base_weights":[1.0981247E-2,-2.346788E-2,1.5668863E-1,-1.3130179E-1,2.2572887E-1,1.0382659E-2,-6.50554E-2,7.7131145E-2,-1.8889697E-2],"categories":[],"categories_nodes":[],"categories_segments":[],"categories_sizes":[],"default_left":[0,0,0,0,0,0,0,0,0],"id":13,"left_children":[1,3,-1,5,7,-1,-1,-1,-1],"loss_changes":[6.479279E1,6.196288E1,0E0,5.7717697E1,3.605429E1,0E0,0E0,0E0,0E0],"parents":[2147483647,0,0,1,1,3,3,4,4],"right_children":[2,4,-1,6,8,-1,-1,-1,-1],"split_conditions":[3E0,1E0,1.5668863E-1,1E0,2E0,1.0382659E-2,-6.50554E-2,7.7131145E-2,-1.8889697E-2],"split_indices":[5,9,0,7,5,0,0,0,0],"split_type":[0,0,0,0,0,0,0,0,0],"sum_hessian":[2.3978318E3,2.298864E3,9.896784E1,1.6089904E3,6.8987354E2,8.26677E2,7.8231335E2,4.614717E2,2.2840184E2],"tree_param":{"num_deleted":"0","num_feature":"11","num_nodes":"9","size_leaf_vector":"1"}},{"base_weights":[-1.7925005E-2,-1.1131098E-1,2.6845255E-1,4.3702245E-2,-2.5807035E-1,3.1740597E-1,-8.655069E-1,3.5827656E-3,1.743776E-1,2.3029588E-1,-5.5904683E-2,1.0932298E-1,2.8985793E-2,-4.0750127E-2,-2.035441E-1],"categories":[],"categories_nodes":[],"categories_segments":[],"categories_sizes":[],"default_left":[0,0,0,0,0,0,0,0,0,0,0,0,0,0,0],"id":14,"left_children":[1,3,5,7,9,11,13,-1,-1,-1,-1,-1,-1,-1,-1],"loss_changes":[6.3513252E1,4.1158188E1,3.3183086E1,1.772048E1,2.8776821E1,2.118079E1,2.215519E-1,0E0,0E0,0E0,0E0,0E0,0E0,0E0,0E0],"parents":[2147483647,0,0,1,1,2,2,3,3,4,4,5,5,6,6],"right_children":[2,4,6,8,10,12,14,-1,-1,-1,-1,-1,-1,-1,-1],"split_conditions":[4.7E1,1E0,7.2E1,1.78742E5,4.16E2,1E0,6.35E2,3.5827656E-3,1.743776E-1,2.3029588E-1,-5.5904683E-2,1.0932298E-1,2.8985793E-2,-4.0750127E-2,-2.035441E-1],"split_indices":[2,1,2,4,0,7,0,0,0,0,0,0,0,0,0],"split_type":[0,0,0,0,0,0,0,0,0,0,0,0,0,0,0],"sum_hessian":[2.3701804E3,1.792278E3,5.7790247E2,8.700222E2,9.2225574E2,5.5828345E2,1.9618967E1,8.498741E2,2.0148146E1,9.178941E0,9.1307684E2,2.325707E2,3.2571277E2,7.083917E0,1.2535049E1],"tree_param":{"num_deleted":"0","num_feature":"11","num_nodes":"15","size_leaf_vector":"1"}},{"base_weights":[3.5559203E-2,1.8533258E-1,-1.2251509E-1,1.2319975E-1,7.774557E-1,3.6641E-2,-2.7710345E-1,5.2211482E-2,-2.2275746E-3,1.6641115E-1,-0E0,-1.36862425E-2,5.505541E-2,-6.0510527E-2,1.2219695E-1],"categories":[],"categories_nodes":[],"categories_segments":[],"categories_sizes":[],"default_left":[0,0,0,0,0,0,0,0,0,0,0,0,0,0,0],"id":15,"left_children":[1,3,5,7,9,11,13,-1,-1,-1,-1,-1,-1,-1,-1],"loss_changes":[5.5810734E1,4.3205265E1,2.8413843E1,2.0714527E1,4.4060364E0,1.4453326E1,1.3805954E1,0E0,0E0,0E0,0E0,0E0,0E0,0E0,0E0],"parents":[2147483647,0,0,1,1,2,2,3,3,4,4,5,5,6,6],"right_children":[2,4,6,8,10,12,14,-1,-1,-1,-1,-1,-1,-1,-1],"split_conditions":[1E0,5.2E1,1E0,1E0,6.8E1,4.7E1,1.8053E5,5.2211482E-2,-2.2275746E-3,1.6641115E-1,-0E0,-1.36862425E-2,5.505541E-2,-6.0510527E-2,1.2219695E-1],"split_indices":[7,2,1,1,2,2,4,0,0,0,0,0,0,0,0],"split_type":[0,0,0,0,0,0,0,0,0,0,0,0,0,0,0],"sum_hessian":[2.3448892E3,1.2068644E3,1.1380248E3,1.0992471E3,1.07617355E2,5.594206E2,5.786041E2,5.438619E2,5.553852E2,9.9686424E1,7.930926E0,3.879713E2,1.714493E2,5.6678485E2,1.1819247E1],"tree_param":{"num_deleted":"0","num_feature":"11","num_nodes":"15","size_leaf_vector":"1"}},{"base_weights":[1.6061015E-2,-1.1571523E-2,7.070851E-1,1.0464179E-1,-2.3869818E-1,2.5065318E-1,1.8178949E-1,1.3849638E-1,-1.3703207E-2,-1.2655E-1,1.698253E-2,-2.6943078E-2,1.4281464E-1],"categories":[],"categories_nodes":[],"categories_segments":[],"categories_sizes":[],"default_left":[0,0,0,0,0,0,0,0,0,0,0,0,0],"id":16,"left_children":[1,3,5,7,9,11,-1,-1,-1,-1,-1,-1,-1],"loss_changes":[4.5104443E1,5.9324883E1,6.0685196E0,1.5159944E2,9.796974E1,7.537798E0,0E0,0E0,0E0,0E0,0E0,0E0,0E0],"parents":[2147483647,0,0,1,1,2,2,3,3,4,4,5,5],"right_children":[2,4,6,8,10,12,-1,-1,-1,-1,-1,-1,-1],"split_conditions":[3E0,2E0,4.9572E4,5.4503E4,4.4928E4,4.3E1,1.8178949E-1,1.3849638E-1,-1.3703207E-2,-1.2655E-1,1.698253E-2,-2.6943078E-2,1.4281464E-1],"split_indices":[5,5,4,4,4,2,0,0,0,0,0,0,0],"split_type":[0,0,0,0,0,0,0,0,0,0,0,0,0],"sum_hessian":[2.318572E3,2.232758E3,8.581396E1,1.4758878E3,7.568702E2,3.1270487E1,5.454347E1,3.3372617E2,1.1421616E3,3.4053003E2,4.1634012E2,1.783117E1,1.3439319E1],"tree_param":{"num_deleted":"0","num_feature":"11","num_nodes":"13","size_leaf_vector":"1"}},{"base_weights":[-6.863721E-3,-2.4105886E-2,9.081918E-1,-1.18601635E-1,1.8208075E-1,1.6646896E-2,2.077246E-1,-2.8807495E-2,1.1195075E-1,-1.6863549E-1,6.2099844E-2],"categories":[],"categories_nodes":[],"categories_segments":[],"categories_sizes":[],"default_left":[0,0,0,0,0,0,0,0,0,0,0],"id":17,"left_children":[1,3,5,7,9,-1,-1,-1,-1,-1,-1],"loss_changes":[3.5042873E1,4.3573475E1,2.8619766E0,2.6530958E1,9.3040436E1,0E0,0E0,0E0,0E0,0E0,0E0],"parents":[2147483647,0,0,1,1,2,2,3,3,4,4],"right_children":[2,4,6,8,10,-1,-1,-1,-1,-1,-1],"split_conditions":[1.85966E5,1E0,5.79E2,1.68253E5,9.2659E4,1.6646896E-2,2.077246E-1,-2.8807495E-2,1.1195075E-1,-1.6863549E-1,6.2099844E-2],"split_indices":[4,9,0,4,4,0,0,0,0,0,0],"split_type":[0,0,0,0,0,0,0,0,0,0,0],"sum_hessian":[2.2651575E3,2.229116E3,3.6041565E1,1.5333517E3,6.957642E2,7.085361E0,2.8956205E1,1.4831514E3,5.0200253E1,7.348262E1,6.222816E2],"tree_param":{"num_deleted":"0","num_feature":"11","num_nodes":"11","size_leaf_vector":"1"}},{"base_weights":[-1.4050946E-2,-7.884711E-2,1.8937889E-1,2.3459498E-2,-1.8046898E-1,2.643681E-1,-4.4910258E-1,-6.381791E-2,1.2916538E-2,-4.0614046E-2,8.6030774E-2,8.748532E-2,1.8316371E-2,-3.065455E-2,-1.737261E-1],"categories":[],"categories_nodes":[],"categories_segments":[],"categories_sizes":[],"default_left":[0,0,0,0,0,0,0,0,0,0,0,0,0,0,0],"id":18,"left_children":[1,3,5,7,9,11,13,-1,-1,-1,-1,-1,-1,-1,-1],"loss_changes":[3.0225159E1,1.8355549E1,2.6853874E1,1.2115023E1,1.239048E1,1.4186573E1,5.573187E0,0E0,0E0,0E0,0E0,0E0,0E0,0E0,0E0],"parents":[2147483647,0,0,1,1,2,2,3,3,4,4,5,5,6,6],"right_children":[2,4,6,8,10,12,14,-1,-1,-1,-1,-1,-1,-1,-1],"split_conditions":[4.7E1,1E0,6.6E1,2.8E1,3E0,5E0,7.2E1,-6.381791E-2,1.2916538E-2,-4.0614046E-2,8.6030774E-2,8.748532E-2,1.8316371E-2,-3.065455E-2,-1.737261E-1],"split_indices":[2,1,2,2,5,3,2,0,0,0,0,0,0,0,0],"split_type":[0,0,0,0,0,0,0,0,0,0,0,0,0,0,0],"sum_hessian":[2.2907244E3,1.7433977E3,5.4732666E2,8.657846E2,8.776131E2,4.938234E2,5.3503284E1,8.656867E1,7.7921594E2,8.510863E2,2.6526772E1,2.3999985E2,2.5382355E2,3.6778973E1,1.672431E1],"tree_param":{"num_deleted":"0","num_feature":"11","num_nodes":"15","size_leaf_vector":"1"}},{"base_weights":[1.4270119E-2,1.275303E-1,-1.003057E-1,2.4613483E-1,3.5687264E-2,-2.3161848E-1,3.127636E-2,9.67752E-3,8.7153904E-2,-5.353699E-2,1.963623E-2,-6.1422735E-2,5.9708484E-2,3.7955865E-2,-2.0629946E-2],"categories":[],"categories_nodes":[],"categories_segments":[],"categories_sizes":[],"default_left":[0,0,0,0,0,0,0,0,0,0,0,0,0,0,0],"id":19,"left_children":[1,3,5,7,9,11,13,-1,-1,-1,-1,-1,-1,-1,-1],"loss_changes":[2.9413296E1,1.21238365E1,1.9617207E1,1.7904566E1,1.2374611E1,2.311322E1,1.2134741E1,0E0,0E0,0E0,0E0,0E0,0E0,0E0,0E0],"parents":[2147483647,0,0,1,1,2,2,3,3,4,4,5,5,6,6],"right_children":[2,4,6,8,10,12,14,-1,-1,-1,-1,-1,-1,-1,-1],"split_conditions":[1E0,6.31E2,4E1,1.08841E5,6.56E2,1.77357E5,5E0,9.67752E-3,8.7153904E-2,-5.353699E-2,1.963623E-2,-6.1422735E-2,5.9708484E-2,3.7955865E-2,-2.0629946E-2],"split_indices":[1,0,2,8,0,8,3,0,0,0,0,0,0,0,0],"split_type":[0,0,0,0,0,0,0,0,0,0,0,0,0,0,0],"sum_hessian":[2.2545657E3,1.1378971E3,1.1166686E3,4.8818085E2,6.4971625E2,5.608074E2,5.558612E2,2.4463231E2,2.4354855E2,1.0544115E2,5.442751E2,4.9439505E2,6.641232E1,2.5755548E2,2.9830573E2],"tree_param":{"num_deleted":"0","num_feature":"11","num_nodes":"15","size_leaf_vector":"1"}},{"base_weights":[-8.964967E-3,1.09254725E-1,-1.3512668E-1,1.8957439E-1,-3.650864E-2,-1.614946E-1,5.1077694E-1,1.19855635E-1,1.3586707E-2,-2.1692455E-2,1.2648846E-1,-3.5430744E-2,1.01779595E-1,-0E0,1.5401025E-1],"categories":[],"categories_nodes":[],"categories_segments":[],"categories_sizes":[],"default_left":[0,0,0,0,0,0,0,0,0,0,0,0,0,0,0],"id":20,"left_children":[1,3,5,7,9,11,13,-1,-1,-1,-1,-1,-1,-1,-1],"loss_changes":[3.34143E1,1.36725445E1,1.8573666E1,3.6398834E1,1.9503881E1,1.1136633E1,5.105459E0,0E0,0E0,0E0,0E0,0E0,0E0,0E0,0E0],"parents":[2147483647,0,0,1,1,2,2,3,3,4,4,5,5,6,6],"right_children":[2,4,6,8,10,12,14,-1,-1,-1,-1,-1,-1,-1,-1],"split_conditions":[1E0,2E0,3E0,4.4928E4,3E0,1.8053E5,4.9572E4,1.19855635E-1,1.3586707E-2,-2.1692455E-2,1.2648846E-1,-3.5430744E-2,1.01779595E-1,-0E0,1.5401025E-1],"split_indices":[7,5,5,4,5,4,4,0,0,0,0,0,0,0,0],"split_type":[0,0,0,0,0,0,0,0,0,0,0,0,0,0,0],"sum_hessian":[2.2286614E3,1.1467987E3,1.0818628E3,7.428341E2,4.0396463E2,1.04452E3,3.7342697E1,1.6368056E2,5.791535E2,3.698654E2,3.4099236E1,1.0257313E3,1.8788784E1,1.5103326E1,2.223937E1],"tree_param":{"num_deleted":"0","num_feature":"11","num_nodes":"15","size_leaf_vector":"1"}},{"base_weights":[2.026562E-2,-6.956246E-2,2.1735588E-1,-9.245212E-2,5.4249394E-1,3.475716E-1,-1.4085978E-2,5.8786727E-2,-2.2771938E-2,2.7298763E-2,1.385253E-1,4.4219736E-2,1.0837784E-1,1.3656926E-2,-1.206032E-1],"categories":[],"categories_nodes":[],"categories_segments":[],"categories_sizes":[],"default_left":[0,0,0,0,0,0,0,0,0,0,0,0,0,0,0],"id":21,"left_children":[1,3,5,7,9,11,13,-1,-1,-1,-1,-1,-1,-1,-1],"loss_changes":[3.966839E1,2.124632E1,2.1521526E1,1.2240983E1,2.010213E0,9.754982E0,1.3105085E1,0E0,0E0,0E0,0E0,0E0,0E0,0E0,0E0],"parents":[2147483647,0,0,1,1,2,2,3,3,4,4,5,5,6,6],"right_children":[2,4,6,8,10,12,14,-1,-1,-1,-1,-1,-1,-1,-1],"split_conditions":[1E0,3E0,2E0,4.82E2,3.8E1,4.3E1,1.75836E5,5.8786727E-2,-2.2771938E-2,2.7298763E-2,1.385253E-1,4.4219736E-2,1.0837784E-1,1.3656926E-2,-1.206032E-1],"split_indices":[9,5,5,0,2,2,8,0,0,0,0,0,0,0,0],"split_type":[0,0,0,0,0,0,0,0,0,0,0,0,0,0,0],"sum_hessian":[2.222997E3,1.5257607E3,6.9723645E2,1.4764241E3,4.933666E1,4.4735422E2,2.4988225E2,7.1712875E1,1.4047112E3,1.7693932E1,3.1642727E1,2.8057523E2,1.66779E2,2.2160918E2,2.8273066E1],"tree_param":{"num_deleted":"0","num_feature":"11","num_nodes":"15","size_leaf_vector":"1"}},{"base_weights":[-4.876756E-3,9.516747E-2,-1.1370946E-1,4.0152732E-2,6.873246E-1,-7.067868E-2,-4.544766E-1,1.00731574E-1,3.0969784E-3,1.4713168E-1,3.3111587E-2,-3.393208E-2,5.3083003E-2,-1.4520675E-1,3.0809773E-2],"categories":[],"categories_nodes":[],"categories_segments":[],"categories_sizes":[],"default_left":[0,0,0,0,0,0,0,0,0,0,0,0,0,0,0],"id":22,"left_children":[1,3,5,7,9,11,13,-1,-1,-1,-1,-1,-1,-1,-1],"loss_changes":[2.4001842E1,3.6371773E1,1.4853145E1,1.1478407E1,8.93486E-1,3.1713736E1,2.0182093E1,0E0,0E0,0E0,0E0,0E0,0E0,0E0,0E0],"parents":[2147483647,0,0,1,1,2,2,3,3,4,4,5,5,6,6],"right_children":[2,4,6,8,10,12,14,-1,-1,-1,-1,-1,-1,-1,-1],"split_conditions":[1E0,5.2E1,5.8E1,2.5E1,6.5E1,4.7E1,7.19E2,1.00731574E-1,3.0969784E-3,1.4713168E-1,3.3111587E-2,-3.393208E-2,5.3083003E-2,-1.4520675E-1,3.0809773E-2],"split_indices":[7,2,2,2,2,2,0,0,0,0,0,0,0,0,0],"split_type":[0,0,0,0,0,0,0,0,0,0,0,0,0,0,0],"sum_hessian":[2.1927417E3,1.1380402E3,1.0547015E3,1.047728E3,9.031207E1,9.4441595E2,1.1028563E2,4.5988277E1,1.00173975E3,7.902532E1,1.1286753E1,7.33768E2,2.1064792E2,7.67247E1,3.3560932E1],"tree_param":{"num_deleted":"0","num_feature":"11","num_nodes":"15","size_leaf_vector":"1"}},{"base_weights":[-2.4363576E-3,-1.8759921E-1,6.844205E-2,-2.9639032E-2,-2.75583E-1,-0E0,2.2394583E-1,-5.335064E-2,7.22598E-2,-6.779338E-2,2.9331142E-2,2.6380032E-2,-2.5239697E-2,6.973408E-2,-1.5022036E-1],"categories":[],"categories_nodes":[],"categories_segments":[],"categories_sizes":[],"default_left":[0,0,0,0,0,0,0,0,0,0,0,0,0,0,0],"id":23,"left_children":[1,3,5,7,9,11,13,-1,-1,-1,-1,-1,-1,-1,-1],"loss_changes":[2.911206E1,8.207176E0,1.7108437E1,2.1692137E1,1.0894537E1,1.853648E1,6.0497177E1,0E0,0E0,0E0,0E0,0E0,0E0,0E0,0E0],"parents":[2147483647,0,0,1,1,2,2,3,3,4,4,5,5,6,6],"right_children":[2,4,6,8,10,12,14,-1,-1,-1,-1,-1,-1,-1,-1],"split_conditions":[3.5E1,7.3286E4,1E0,4.8606E4,1.51709E5,8.171E4,1.46587E5,-5.335064E-2,7.22598E-2,-6.779338E-2,2.9331142E-2,2.6380032E-2,-2.5239697E-2,6.973408E-2,-1.5022036E-1],"split_indices":[2,8,9,8,4,4,4,0,0,0,0,0,0,0,0],"split_type":[0,0,0,0,0,0,0,0,0,0,0,0,0,0,0],"sum_hessian":[2.199252E3,6.104323E2,1.5888196E3,2.2483278E2,3.8559955E2,1.1038188E3,4.8500076E2,1.4253052E2,8.230226E1,3.3818735E2,4.74122E1,5.3709076E2,5.66728E2,4.3375412E2,5.1246643E1],"tree_param":{"num_deleted":"0","num_feature":"11","num_nodes":"15","size_leaf_vector":"1"}},{"base_weights":[-6.377629E-3,8.6443305E-1,-1.9004581E-2,2.0584737E-1,5.009198E-2,-3.5196565E-2,4.7047132E-1,8.851542E-3,-3.8688835E-2,-0E0,1.5035276E-1],"categories":[],"categories_nodes":[],"categories_segments":[],"categories_sizes":[],"default_left":[0,0,0,0,0,0,0,0,0,0,0],"id":24,"left_children":[1,3,5,-1,-1,7,9,-1,-1,-1,-1],"loss_changes":[2.298356E1,4.5110512E-1,1.6567123E1,0E0,0E0,2.6257746E1,9.327963E0,0E0,0E0,0E0,0E0],"parents":[2147483647,0,0,1,1,2,2,5,5,6,6],"right_children":[2,4,6,-1,-1,8,10,-1,-1,-1,-1],"split_conditions":[4.29E2,4.16E2,3E0,2.0584737E-1,5.009198E-2,2E0,3.8617E4,8.851542E-3,-3.8688835E-2,-0E0,1.5035276E-1],"split_indices":[0,0,5,0,0,5,4,0,0,0,0],"split_type":[0,0,0,0,0,0,0,0,0,0,0],"sum_hessian":[2.1546516E3,2.4843468E1,2.129808E3,1.5635935E1,9.207533E0,2.068079E3,6.1729095E1,1.3749934E3,6.9308575E2,2.4088997E1,3.76401E1],"tree_param":{"num_deleted":"0","num_feature":"11","num_nodes":"11","size_leaf_vector":"1"}},{"base_weights":[6.1511993E-4,-9.597286E-2,8.250905E-2,-5.8388393E-3,-1.8894458E-1,6.1432768E-2,1.3612215E-1,-4.0499587E-2,3.3160847E-2,1.5354456E-2,-6.1945986E-2,3.5980444E-2,-8.636859E-3],"categories":[],"categories_nodes":[],"categories_segments":[],"categories_sizes":[],"default_left":[0,0,0,0,0,0,0,0,0,0,0,0,0],"id":25,"left_children":[1,3,5,7,9,11,-1,-1,-1,-1,-1,-1,-1],"loss_changes":[1.7121618E1,8.082173E0,1.3897053E1,1.7502926E1,1.5786404E1,1.4365413E1,0E0,0E0,0E0,0E0,0E0,0E0,0E0],"parents":[2147483647,0,0,1,1,2,2,3,3,4,4,5,5],"right_children":[2,4,6,8,10,12,-1,-1,-1,-1,-1,-1,-1],"split_conditions":[3.9E1,1.00862E5,3E0,5.1016E4,1E0,5E0,1.3612215E-1,-4.0499587E-2,3.3160847E-2,1.5354456E-2,-6.1945986E-2,3.5980444E-2,-8.636859E-3],"split_indices":[2,8,5,8,6,3,0,0,0,0,0,0,0],"split_type":[0,0,0,0,0,0,0,0,0,0,0,0,0],"sum_hessian":[2.1562588E3,9.8337195E2,1.1728868E3,5.0746545E2,4.7590652E2,1.1399037E3,3.298311E1,2.3879483E2,2.6867062E2,1.4670706E2,3.2919946E2,5.373564E2,6.025473E2],"tree_param":{"num_deleted":"0","num_feature":"11","num_nodes":"13","size_leaf_vector":"1"}},{"base_weights":[-1.0469046E-4,8.540501E-3,-1.935256E-1,9.660355E-2,-7.865837E-2,-1.4158526E-3,5.985251E-2,1.8001324E-1,-1.8617013E-2],"categories":[],"categories_nodes":[],"categories_segments":[],"categories_sizes":[],"default_left":[0,0,0,0,0,0,0,0,0],"id":26,"left_children":[1,3,-1,5,7,-1,-1,-1,-1],"loss_changes":[1.8923677E1,1.6394945E1,0E0,2.2714033E1,1.4666031E1,0E0,0E0,0E0,0E0],"parents":[2147483647,0,0,1,1,3,3,4,4],"right_children":[2,4,-1,6,8,-1,-1,-1,-1],"split_conditions":[7.2E1,1E0,-1.935256E-1,1.34638E5,4.16E2,-1.4158526E-3,5.985251E-2,1.8001324E-1,-1.8617013E-2],"split_indices":[2,1,0,8,0,0,0,0,0],"split_type":[0,0,0,0,0,0,0,0,0],"sum_hessian":[2.1377979E3,2.1227524E3,1.504531E1,1.0615803E3,1.0611722E3,7.0221136E2,3.5936893E2,9.949151E0,1.051223E3],"tree_param":{"num_deleted":"0","num_feature":"11","num_nodes":"9","size_leaf_vector":"1"}},{"base_weights":[1.3427349E-2,-2.9547423E-2,1.4955589E-1,-1.00477025E-1,1.3116847E-1,2.6312333E-1,-6.6819355E-2,-1.7142974E-2,-1.1645818E-1,6.1071355E-2,-1.1112667E-2,6.184125E-2,-6.68507E-2,2.094415E-2,-8.52504E-2],"categories":[],"categories_nodes":[],"categories_segments":[],"categories_sizes":[],"default_left":[0,0,0,0,0,0,0,0,0,0,0,0,0,0,0],"id":27,"left_children":[1,3,5,7,9,11,13,-1,-1,-1,-1,-1,-1,-1,-1],"loss_changes":[1.2770317E1,1.8722143E1,1.3169402E1,7.2226744E0,1.6591236E1,1.0069468E1,1.1731974E1,0E0,0E0,0E0,0E0,0E0,0E0,0E0,0E0],"parents":[2147483647,0,0,1,1,2,2,3,3,4,4,5,5,6,6],"right_children":[2,4,6,8,10,12,14,-1,-1,-1,-1,-1,-1,-1,-1],"split_conditions":[1.52541E5,1E0,1.83284E5,6.5E1,7.4149E4,7.94E2,2E0,-1.7142974E-2,-1.1645818E-1,6.1071355E-2,-1.1112667E-2,6.184125E-2,-6.68507E-2,2.094415E-2,-8.52504E-2],"split_indices":[8,9,8,2,8,0,5,0,0,0,0,0,0,0,0],"split_type":[0,0,0,0,0,0,0,0,0,0,0,0,0,0,0],"sum_hessian":[2.1536345E3,1.6342748E3,5.1935974E2,1.1394789E3,4.94796E2,3.4291666E2,1.7644307E2,1.1133328E3,2.6146093E1,2.5712347E2,2.3767253E2,3.2215118E2,2.076546E1,1.1995523E2,5.6487835E1],"tree_param":{"num_deleted":"0","num_feature":"11","num_nodes":"15","size_leaf_vector":"1"}},{"base_weights":[1.5132781E-2,1.00988515E-1,-7.545417E-2,2.3338797E-2,2.6942885E-1,-9.271988E-2,7.809772E-2,2.5234336E-2,-1.581025E-2,6.0911316E-2,-6.692445E-2,6.63918E-3,-3.0435426E-2],"categories":[],"categories_nodes":[],"categories_segments":[],"categories_sizes":[],"default_left":[0,0,0,0,0,0,0,0,0,0,0,0,0],"id":28,"left_children":[1,3,5,7,9,11,-1,-1,-1,-1,-1,-1,-1],"loss_changes":[1.6639376E1,1.4089416E1,8.203662E0,8.139396E0,7.761511E0,7.6563625E0,0E0,0E0,0E0,0E0,0E0,0E0,0E0],"parents":[2147483647,0,0,1,1,2,2,3,3,4,4,5,5],"right_children":[2,4,6,8,10,12,-1,-1,-1,-1,-1,-1,-1],"split_conditions":[1E0,1E0,3E0,1E0,1.91521E5,1E0,7.809772E-2,2.5234336E-2,-1.581025E-2,6.0911316E-2,-6.692445E-2,6.63918E-3,-3.0435426E-2],"split_indices":[7,9,5,1,8,6,0,0,0,0,0,0,0],"split_type":[0,0,0,0,0,0,0,0,0,0,0,0,0],"sum_hessian":[2.1262678E3,1.0970142E3,1.0292538E3,7.588292E2,3.3818488E2,9.984085E2,3.0845251E1,3.8288925E2,3.7594E2,3.2350638E2,1.4678511E1,3.155471E2,6.828614E2],"tree_param":{"num_deleted":"0","num_feature":"11","num_nodes":"13","size_leaf_vector":"1"}},{"base_weights":[1.5586857E-2,1.8649854E-3,4.6921128E-1,5.600839E-2,-1.054602E-1,1.8012E-1,1.2478893E-1,-5.542175E-4,3.9757624E-2,-1.1296923E-2,-7.251874E-2,8.322486E-2,-6.2223147E-3],"categories":[],"categories_nodes":[],"categories_segments":[],"categories_sizes":[],"default_left":[0,0,0,0,0,0,0,0,0,0,0,0,0],"id":29,"left_children":[1,3,5,7,9,11,-1,-1,-1,-1,-1,-1,-1],"loss_changes":[1.2765991E1,1.202028E1,1.331356E0,1.18364105E1,8.171846E0,1.9605007E0,0E0,0E0,0E0,0E0,0E0,0E0,0E0],"parents":[2147483647,0,0,1,1,2,2,3,3,4,4,5,5],"right_children":[2,4,6,8,10,12,-1,-1,-1,-1,-1,-1,-1],"split_conditions":[3E0,2E0,1.01515E5,1E0,1.70514E5,6.0083E4,1.2478893E-1,-5.542175E-4,3.9757624E-2,-1.1296923E-2,-7.251874E-2,8.322486E-2,-6.2223147E-3],"split_indices":[5,5,8,9,8,8,0,0,0,0,0,0,0],"split_type":[0,0,0,0,0,0,0,0,0,0,0,0,0],"sum_hessian":[2.1222844E3,2.0669844E3,5.5300034E1,1.3816685E3,6.8531586E2,2.53051E1,2.9994934E1,9.7725275E2,4.044157E2,5.84059E2,1.01256874E2,1.1897017E1,1.3408084E1],"tree_param":{"num_deleted":"0","num_feature":"11","num_nodes":"13","size_leaf_vector":"1"}},{"base_weights":[-2.2596198E-3,-1.2613351E-2,5.340071E-1,-6.36381E-2,9.9205494E-2,2.2905543E-1,1.4483428E-1,1.9482283E-2,-4.4763014E-2,-1.6529463E-1,3.746983E-2,1.3419776E-1,-4.068033E-2],"categories":[],"categories_nodes":[],"categories_segments":[],"categories_sizes":[],"default_left":[0,0,0,0,0,0,0,0,0,0,0,0,0],"id":30,"left_children":[1,3,5,7,9,11,-1,-1,-1,-1,-1,-1,-1],"loss_changes":[1.1280521E1,1.1898125E1,4.461136E-1,3.7423946E1,5.312574E1,5.7547507E0,0E0,0E0,0E0,0E0,0E0,0E0,0E0],"parents":[2147483647,0,0,1,1,2,2,3,3,4,4,5,5],"right_children":[2,4,6,8,10,12,-1,-1,-1,-1,-1,-1,-1],"split_conditions":[1.85966E5,1E0,1.2913E5,8.3415E4,8.7413E4,5.1871E4,1.4483428E-1,1.9482283E-2,-4.4763014E-2,-1.6529463E-1,3.746983E-2,1.3419776E-1,-4.068033E-2],"split_indices":[4,9,8,4,4,8,0,0,0,0,0,0,0],"split_type":[0,0,0,0,0,0,0,0,0,0,0,0,0],"sum_hessian":[2.1145012E3,2.081069E3,3.343218E1,1.4366156E3,6.444535E2,1.9093922E1,1.4338257E1,7.142206E2,7.22395E2,5.1402344E1,5.9305115E2,9.223162E0,9.87076E0],"tree_param":{"num_deleted":"0","num_feature":"11","num_nodes":"13","size_leaf_vector":"1"}},{"base_weights":[-4.981862E-4,-8.739584E-3,1.976031E-1,1.513027E-1,-1.6528368E-2,-1.0060015E-2,2.9711599E-2],"categories":[],"categories_nodes":[],"categories_segments":[],"categories_sizes":[],"default_left":[0,0,0,0,0,0,0],"id":31,"left_children":[1,3,-1,-1,5,-1,-1],"loss_changes":[1.6245296E1,1.1824534E1,0E0,0E0,1.1549932E1,0E0,0E0],"parents":[2147483647,0,0,1,1,4,4],"right_children":[2,4,-1,-1,6,-1,-1],"split_conditions":[2.04017E5,4.16E2,1.976031E-1,1.513027E-1,5E1,-1.0060015E-2,2.9711599E-2],"split_indices":[4,0,0,0,2,0,0],"split_type":[0,0,0,0,0,0,0],"sum_hessian":[2.1039917E3,2.0925134E3,1.1478207E1,1.4946816E1,2.0775667E3,1.7326521E3,3.4491458E2],"tree_param":{"num_deleted":"0","num_feature":"11","num_nodes":"7","size_leaf_vector":"1"}},{"base_weights":[-1.43484995E-2,6.1783608E-2,-9.804329E-2,1.51333045E-2,6.249106E-1,-8.319058E-2,-1.7519023E-1,1.0932709E-1,1.0966853E-3,1.38902E-1,-0E0,-2.7420786E-3,-3.4021545E-2],"categories":[],"categories_nodes":[],"categories_segments":[],"categories_sizes":[],"default_left":[0,0,0,0,0,0,0,0,0,0,0,0,0],"id":32,"left_children":[1,3,5,7,9,11,-1,-1,-1,-1,-1,-1,-1],"loss_changes":[1.3364308E1,2.7938114E1,1.0256998E1,4.628817E0,3.0296707E0,5.7849474E0,0E0,0E0,0E0,0E0,0E0,0E0,0E0],"parents":[2147483647,0,0,1,1,2,2,3,3,4,4,5,5],"right_children":[2,4,6,8,10,12,-1,-1,-1,-1,-1,-1,-1],"split_conditions":[1E0,5.2E1,7.2E1,4.29E2,6.5E1,6.68E2,-1.7519023E-1,1.0932709E-1,1.0966853E-3,1.38902E-1,-0E0,-2.7420786E-3,-3.4021545E-2],"split_indices":[7,2,2,0,2,0,0,0,0,0,0,0,0],"split_type":[0,0,0,0,0,0,0,0,0,0,0,0,0],"sum_hessian":[2.081951E3,1.084661E3,9.972899E2,1.00806177E3,7.659922E1,9.8529767E2,1.1992225E1,1.1166447E1,9.968953E2,6.734512E1,9.254095E0,5.571859E2,4.2811176E2],"tree_param":{"num_deleted":"0","num_feature":"11","num_nodes":"13","size_leaf_vector":"1"}},{"base_weights":[1.5636655E-2,-7.670648E-4,4.8146716E-1,-4.8593063E-2,1.0588882E-1,8.5436887E-1,-2.4738851E-1,1.6234484E-2,-3.658697E-2,-1.0738242E-1,4.3779675E-2,-0E0,1.9716658E-1],"categories":[],"categories_nodes":[],"categories_segments":[],"categories_sizes":[],"default_left":[0,0,0,0,0,0,0,0,0,0,0,0,0],"id":33,"left_children":[1,3,5,7,9,11,-1,-1,-1,-1,-1,-1,-1],"loss_changes":[1.6435228E1,1.0270163E1,5.174138E1,2.4656027E1,4.5332848E1,7.3227043E0,0E0,0E0,0E0,0E0,0E0,0E0,0E0],"parents":[2147483647,0,0,1,1,2,2,3,3,4,4,5,5],"right_children":[2,4,6,8,10,12,-1,-1,-1,-1,-1,-1,-1],"split_conditions":[1.75406E5,1E0,1E0,8.2916E4,9.7023E4,5.5E2,-2.4738851E-1,1.6234484E-2,-3.658697E-2,-1.0738242E-1,4.3779675E-2,-0E0,1.9716658E-1],"split_indices":[4,9,9,4,4,0,0,0,0,0,0,0,0],"split_type":[0,0,0,0,0,0,0,0,0,0,0,0,0],"sum_hessian":[2.0826777E3,2.0145814E3,6.809625E1,1.3992404E3,6.153411E2,5.849797E1,9.598286E0,7.089631E2,6.902773E2,8.787904E1,5.2746204E2,8.271452E0,5.0226517E1],"tree_param":{"num_deleted":"0","num_feature":"11","num_nodes":"13","size_leaf_vector":"1"}},{"base_weights":[2.671518E-2,1.8381303E-2,6.9335157E-1,1.4610146E-1,1.0478631E-2,-0E0,1.9365503E-1,1.1800601E-2,-1.5680384E-2],"categories":[],"categories_nodes":[],"categories_segments":[],"categories_sizes":[],"default_left":[0,0,0,0,0,0,0,0,0],"id":34,"left_children":[1,3,5,-1,7,-1,-1,-1,-1],"loss_changes":[1.0751873E1,1.0790597E1,3.7910385E0,0E0,8.80102E0,0E0,0E0,0E0,0E0],"parents":[2147483647,0,0,1,1,2,2,4,4],"right_children":[2,4,6,-1,8,-1,-1,-1,-1],"split_conditions":[1.93125E5,4.16E2,6.41E2,1.4610146E-1,2E0,-0E0,1.9365503E-1,1.1800601E-2,-1.5680384E-2],"split_indices":[4,0,0,0,5,0,0,0,0],"split_type":[0,0,0,0,0,0,0,0,0],"sum_hessian":[2.0698782E3,2.0508772E3,1.900087E1,1.6102676E1,2.0347745E3,7.650788E0,1.1350082E1,1.3245615E3,7.102131E2],"tree_param":{"num_deleted":"0","num_feature":"11","num_nodes":"9","size_leaf_vector":"1"}},{"base_weights":[-2.2796402E-2,-5.9570137E-2,1.0102679E-1,-4.6339054E-2,-5.431019E-1,-3.8416028E-2,2.3640019E-1,-1.1681169E-2,7.741548E-2,-3.3427067E-2,-1.4909333E-1,9.798178E-3,-5.5008955E-2,6.998785E-2,-9.723451E-3],"categories":[],"categories_nodes":[],"categories_segments":[],"categories_sizes":[],"default_left":[0,0,0,0,0,0,0,0,0,0,0,0,0,0,0],"id":35,"left_children":[1,3,5,7,9,11,13,-1,-1,-1,-1,-1,-1,-1,-1],"loss_changes":[9.458341E0,9.603139E0,9.150177E0,8.033911E0,1.5440941E0,5.1143646E0,8.274267E0,0E0,0E0,0E0,0E0,0E0,0E0,0E0,0E0],"parents":[2147483647,0,0,1,1,2,2,3,3,4,4,5,5,6,6],"right_children":[2,4,6,8,10,12,14,-1,-1,-1,-1,-1,-1,-1,-1],"split_conditions":[4.7E1,8.43E2,1.04339E5,1.8053E5,3.7E1,7.5893E4,5.8E1,-1.1681169E-2,7.741548E-2,-3.3427067E-2,-1.4909333E-1,9.798178E-3,-5.5008955E-2,6.998785E-2,-9.723451E-3],"split_indices":[2,0,4,4,2,4,2,0,0,0,0,0,0,0,0],"split_type":[0,0,0,0,0,0,0,0,0,0,0,0,0,0,0],"sum_hessian":[2.0746812E3,1.6078447E3,4.6683652E2,1.5723667E3,3.5478043E1,2.280871E2,2.3874942E2,1.5362297E3,3.613687E1,1.7337824E1,1.814022E1,1.6637105E2,6.1716053E1,1.7243011E2,6.6319305E1],"tree_param":{"num_deleted":"0","num_feature":"11","num_nodes":"15","size_leaf_vector":"1"}},{"base_weights":[1.3026227E-2,-1.6932987E-1,4.549352E-2,-3.6880657E-1,-0E0,8.381505E-2,-8.4401675E-2,-3.5303876E-2,-1.5632634E-1,-7.16428E-2,3.5465505E-2,3.181262E-2,-7.944981E-3,6.3717016E-3,-6.01868E-2],"categories":[],"categories_nodes":[],"categories_segments":[],"categories_sizes":[],"default_left":[0,0,0,0,0,0,0,0,0,0,0,0,0,0,0],"id":36,"left_children":[1,3,5,7,9,11,13,-1,-1,-1,-1,-1,-1,-1,-1],"loss_changes":[1.21521225E1,1.0261345E1,8.811285E0,9.507658E0,1.1405682E1,1.288597E1,1.0341513E1,0E0,0E0,0E0,0E0,0E0,0E0,0E0,0E0],"parents":[2147483647,0,0,1,1,2,2,3,3,4,4,5,5,6,6],"right_children":[2,4,6,8,10,12,14,-1,-1,-1,-1,-1,-1,-1,-1],"split_conditions":[3.1E1,1.0496E5,1.33191E5,7.07E2,4E0,2E0,6.81E2,-3.5303876E-2,-1.5632634E-1,-7.16428E-2,3.5465505E-2,3.181262E-2,-7.944981E-3,6.3717016E-3,-6.01868E-2],"split_indices":[2,4,4,0,3,5,0,0,0,0,0,0,0,0,0],"split_type":[0,0,0,0,0,0,0,0,0,0,0,0,0,0,0],"sum_hessian":[2.0619226E3,3.0378784E2,1.7581348E3,1.3553331E2,1.6825455E2,1.3649277E3,3.9320712E2,9.898704E1,3.654626E1,5.4877415E1,1.1337714E2,8.52393E2,5.1253467E2,2.55611E2,1.3759615E2],"tree_param":{"num_deleted":"0","num_feature":"11","num_nodes":"15","size_leaf_vector":"1"}},{"base_weights":[-2.777009E-2,-1.5392777E-1,5.354495E-3,-2.4476914E-1,1.3904448E-1,1.8541805E-1,-2.9664913E-2,-1.3460298E-1,-3.294772E-2,6.7658E-2,-4.0412497E-2,8.060682E-2,-4.179137E-3,-1.9818464E-2,2.4249468E-2],"categories":[],"categories_nodes":[],"categories_segments":[],"categories_sizes":[],"default_left":[0,0,0,0,0,0,0,0,0,0,0,0,0,0,0],"id":37,"left_children":[1,3,5,7,9,11,13,-1,-1,-1,-1,-1,-1,-1,-1],"loss_changes":[8.7093525E0,1.1780147E1,1.0400491E1,1.0067717E1,7.4709415E0,1.2508559E1,1.42469845E1,0E0,0E0,0E0,0E0,0E0,0E0,0E0,0E0],"parents":[2147483647,0,0,1,1,2,2,3,3,4,4,5,5,6,6],"right_children":[2,4,6,8,10,12,14,-1,-1,-1,-1,-1,-1,-1,-1],"split_conditions":[3.3E1,1E0,2E0,2E0,7E0,6.39E2,1.38423E5,-1.3460298E-1,-3.294772E-2,6.7658E-2,-4.0412497E-2,8.060682E-2,-4.179137E-3,-1.9818464E-2,2.4249468E-2],"split_indices":[2,10,3,3,3,0,8,0,0,0,0,0,0,0,0],"split_type":[0,0,0,0,0,0,0,0,0,0,0,0,0,0,0],"sum_hessian":[2.0425759E3,4.272633E2,1.6153126E3,3.293716E2,9.789169E1,2.6415527E2,1.3511573E3,4.4060417E1,2.853112E2,6.3672554E1,3.421914E1,1.2859502E2,1.3556024E2,9.3113196E2,4.200254E2],"tree_param":{"num_deleted":"0","num_feature":"11","num_nodes":"15","size_leaf_vector":"1"}},{"base_weights":[1.281793E-2,-5.381325E-4,4.7273043E-1,6.719139E-2,-7.005829E-2,2.4402694E-1,1.4383997E-1,1.6805902E-2,-1.2404897E-1,-0E0,-4.0644232E-2,6.528338E-2,-0E0],"categories":[],"categories_nodes":[],"categories_segments":[],"categories_sizes":[],"default_left":[0,0,0,0,0,0,0,0,0,0,0,0,0],"id":38,"left_children":[1,3,5,7,9,11,-1,-1,-1,-1,-1,-1,-1],"loss_changes":[1.3076558E1,9.428117E0,1.5425282E0,1.1376535E1,9.462229E0,1.1237073E0,0E0,0E0,0E0,0E0,0E0,0E0,0E0],"parents":[2147483647,0,0,1,1,2,2,3,3,4,4,5,5],"right_children":[2,4,6,8,10,12,-1,-1,-1,-1,-1,-1,-1],"split_conditions":[3E0,1E0,4.3E1,8.5E2,7E0,4E1,1.4383997E-1,1.6805902E-2,-1.2404897E-1,-0E0,-4.0644232E-2,6.528338E-2,-0E0],"split_indices":[5,1,2,0,3,2,0,0,0,0,0,0,0],"split_type":[0,0,0,0,0,0,0,0,0,0,0,0,0],"sum_hessian":[2.0467456E3,1.9917249E3,5.502075E1,1.0016539E3,9.9007104E2,3.5804676E1,1.921607E1,9.8340967E2,1.824422E1,6.476956E2,3.4237543E2,2.8352022E1,7.452656E0],"tree_param":{"num_deleted":"0","num_feature":"11","num_nodes":"13","size_leaf_vector":"1"}},{"base_weights":[-2.754774E-3,8.162926E-2,-9.3977086E-2,1.00054316E-1,-5.557351E-1,-3.406221E-2,-3.4904352E-1,2.4889496E-3,5.0037254E-2,1.7210413E-2,-1.8808965E-1,4.3147918E-2,-1.6659942E-2,-8.171638E-2,9.563043E-2],"categories":[],"categories_nodes":[],"categories_segments":[],"categories_sizes":[],"default_left":[0,0,0,0,0,0,0,0,0,0,0,0,0,0,0],"id":39,"left_children":[1,3,5,7,9,11,13,-1,-1,-1,-1,-1,-1,-1,-1],"loss_changes":[1.561392E1,1.2120642E1,1.4527241E1,1.3185006E1,8.335645E0,9.820974E0,9.900888E0,0E0,0E0,0E0,0E0,0E0,0E0,0E0,0E0],"parents":[2147483647,0,0,1,1,2,2,3,3,4,4,5,5,6,6],"right_children":[2,4,6,8,10,12,14,-1,-1,-1,-1,-1,-1,-1,-1],"split_conditions":[1E0,1.947E5,1.37948E5,6.87E2,6.1671E4,3.1825E4,1.93125E5,2.4889496E-3,5.0037254E-2,1.7210413E-2,-1.8808965E-1,4.3147918E-2,-1.6659942E-2,-8.171638E-2,9.563043E-2],"split_indices":[7,8,4,0,4,8,4,0,0,0,0,0,0,0,0],"split_type":[0,0,0,0,0,0,0,0,0,0,0,0,0,0,0],"sum_hessian":[2.0167988E3,1.042246E3,9.7455286E2,1.01858466E3,2.3661388E1,7.969405E2,1.7761234E2,6.508539E2,3.6773077E2,9.348418E0,1.4312971E1,1.25090065E2,6.718504E2,1.6917499E2,8.437347E0],"tree_param":{"num_deleted":"0","num_feature":"11","num_nodes":"15","size_leaf_vector":"1"}},{"base_weights":[9.024436E-3,-1.2469222E-3,3.8550866E-1,3.7993222E-2,-8.327558E-2,-0E0,1.3488166E-1,9.380663E-2,-1.6763514E-2,-9.198131E-2,4.055566E-2,-6.8294585E-2,1.1042231E-1],"categories":[],"categories_nodes":[],"categories_segments":[],"categories_sizes":[],"default_left":[0,0,0,0,0,0,0,0,0,0,0,0,0],"id":40,"left_children":[1,3,5,7,9,11,-1,-1,-1,-1,-1,-1,-1],"loss_changes":[8.337604E0,6.511258E0,6.7407293E0,7.149857E1,7.1639114E1,6.236982E0,0E0,0E0,0E0,0E0,0E0,0E0,0E0],"parents":[2147483647,0,0,1,1,2,2,3,3,4,4,5,5],"right_children":[2,4,6,8,10,12,-1,-1,-1,-1,-1,-1,-1],"split_conditions":[3E0,2E0,4.9572E4,5.4503E4,5.4503E4,1.51738E5,1.3488166E-1,9.380663E-2,-1.6763514E-2,-9.198131E-2,4.055566E-2,-6.8294585E-2,1.1042231E-1],"split_indices":[5,5,4,4,4,8,0,0,0,0,0,0,0],"split_type":[0,0,0,0,0,0,0,0,0,0,0,0,0],"sum_hessian":[2.0510977E3,1.9988906E3,5.220706E1,1.3456594E3,6.532313E2,2.369392E1,2.851314E1,2.9516055E2,1.0504988E3,2.8217047E2,3.7106085E2,1.6431131E1,7.26279E0],"tree_param":{"num_deleted":"0","num_feature":"11","num_nodes":"13","size_leaf_vector":"1"}},{"base_weights":[1.4336104E-2,4.900208E-2,-5.0721418E-2,3.9033243E-1,-6.010248E-2,-3.622043E-1,1.6598246E-1,8.236212E-2,-3.951123E-2,-6.837579E-2,4.0269186E-4,-3.686953E-2,-1.09932356E-1,7.5131714E-2,-7.185228E-3],"categories":[],"categories_nodes":[],"categories_segments":[],"categories_sizes":[],"default_left":[0,0,0,0,0,0,0,0,0,0,0,0,0,0,0],"id":41,"left_children":[1,3,5,7,9,11,13,-1,-1,-1,-1,-1,-1,-1,-1],"loss_changes":[4.623508E0,5.06071E1,4.7977974E1,4.776943E0,1.8244614E1,8.497009E0,1.8034092E1,0E0,0E0,0E0,0E0,0E0,0E0,0E0,0E0],"parents":[2147483647,0,0,1,1,2,2,3,3,4,4,5,5,6,6],"right_children":[2,4,6,8,10,12,14,-1,-1,-1,-1,-1,-1,-1,-1],"split_conditions":[2E0,6.8213E4,4.4928E4,6.3E1,9.9097E4,1E0,1.18311E5,8.236212E-2,-3.951123E-2,-6.837579E-2,4.0269186E-4,-3.686953E-2,-1.09932356E-1,7.5131714E-2,-7.185228E-3],"split_indices":[5,4,4,2,4,1,4,0,0,0,0,0,0,0,0],"split_type":[0,0,0,0,0,0,0,0,0,0,0,0,0,0,0],"sum_hessian":[2.0403312E3,1.341902E3,6.9842914E2,3.2413452E2,1.0177675E3,2.8706662E2,4.1136252E2,3.1579562E2,8.338874E0,1.8267566E2,8.3509186E2,1.5513171E2,1.3193492E2,2.0211847E2,2.0924403E2],"tree_param":{"num_deleted":"0","num_feature":"11","num_nodes":"15","size_leaf_vector":"1"}},{"base_weights":[-1.77274E-2,-4.084497E-2,1.3413072E-1,4.788571E-1,-4.8015315E-2,1.8601426E-1,-1.2992345E-1,-0E0,1.406854E-1,-1.03038765E-1,-7.542924E-3,9.055324E-3,6.0778737E-2],"categories":[],"categories_nodes":[],"categories_segments":[],"categories_sizes":[],"default_left":[0,0,0,0,0,0,0,0,0,0,0,0,0],"id":42,"left_children":[1,3,5,7,9,11,-1,-1,-1,-1,-1,-1,-1],"loss_changes":[7.0427675E0,6.2685094E0,1.0834381E1,2.3976283E0,7.7681885E0,3.7583704E0,0E0,0E0,0E0,0E0,0E0,0E0,0E0],"parents":[2147483647,0,0,1,1,2,2,3,3,4,4,5,5],"right_children":[2,4,6,8,10,12,-1,-1,-1,-1,-1,-1,-1],"split_conditions":[5.2E1,4.29E2,7.2E1,9.5984E4,4.65E2,1.02721E5,-1.2992345E-1,-0E0,1.406854E-1,-1.03038765E-1,-7.542924E-3,9.055324E-3,6.0778737E-2],"split_indices":[2,0,2,4,0,4,0,0,0,0,0,0,0],"split_type":[0,0,0,0,0,0,0,0,0,0,0,0,0],"sum_hessian":[2.0199186E3,1.7619368E3,2.579818E2,1.7604374E1,1.7443324E3,2.4673721E2,1.1244604E1,7.2835183E0,1.0320856E1,3.0249214E1,1.7140831E3,1.1948561E2,1.2725161E2],"tree_param":{"num_deleted":"0","num_feature":"11","num_nodes":"13","size_leaf_vector":"1"}},{"base_weights":[-1.3193896E-2,5.2087173E-2,-8.434349E-2,1.2872095E-1,-6.7105577E-3,3.5417784E-2,-1.4235403E-1,1.3019363E-2,7.6002E-2,-1.0491784E-1,7.322275E-3,-4.4578626E-3,9.538134E-2,-2.0942086E-2,-1.2489666E-1],"categories":[],"categories_nodes":[],"categories_segments":[],"categories_sizes":[],"default_left":[0,0,0,0,0,0,0,0,0,0,0,0,0,0,0],"id":43,"left_children":[1,3,5,7,9,11,13,-1,-1,-1,-1,-1,-1,-1,-1],"loss_changes":[9.396284E0,4.8335633E0,6.882564E0,6.804608E0,1.3787343E1,8.5443945E0,1.0944003E1,0E0,0E0,0E0,0E0,0E0,0E0,0E0,0E0],"parents":[2147483647,0,0,1,1,2,2,3,3,4,4,5,5,6,6],"right_children":[2,4,6,8,10,12,14,-1,-1,-1,-1,-1,-1,-1,-1],"split_conditions":[1E0,6.33E2,1E0,6.12E2,6.44E2,7.8E2,7.94E2,1.3019363E-2,7.6002E-2,-1.0491784E-1,7.322275E-3,-4.4578626E-3,9.538134E-2,-2.0942086E-2,-1.2489666E-1],"split_indices":[7,0,6,0,0,0,0,0,0,0,0,0,0,0,0],"split_type":[0,0,0,0,0,0,0,0,0,0,0,0,0,0,0],"sum_hessian":[2.0063286E3,1.0396841E3,9.6664453E2,4.5618222E2,5.8350183E2,3.104459E2,6.5619867E2,3.7221536E2,8.396685E1,4.2537537E1,5.409643E2,2.7675385E2,3.3692043E1,6.162437E2,3.9954914E1],"tree_param":{"num_deleted":"0","num_feature":"11","num_nodes":"15","size_leaf_vector":"1"}},{"base_weights":[-1.4400583E-2,-7.436796E-2,3.80904E-2,4.2252507E-2,-2.4219109E-1,-4.3033842E-2,2.4763033E-1,5.1831413E-2,-5.365106E-2,-6.700567E-2,1.542928E-3,-3.882286E-2,3.712758E-2,1.1760187E-1,-3.537311E-3],"categories":[],"categories_nodes":[],"categories_segments":[],"categories_sizes":[],"default_left":[0,0,0,0,0,0,0,0,0,0,0,0,0,0,0],"id":44,"left_children":[1,3,5,7,9,11,13,-1,-1,-1,-1,-1,-1,-1,-1],"loss_changes":[6.362075E0,1.8775589E1,1.833828E1,3.799958E1,9.442234E0,2.6707243E1,2.7808672E1,0E0,0E0,0E0,0E0,0E0,0E0,0E0,0E0],"parents":[2147483647,0,0,1,1,2,2,3,3,4,4,5,5,6,6],"right_children":[2,4,6,8,10,12,14,-1,-1,-1,-1,-1,-1,-1,-1],"split_conditions":[1.03549E5,2E0,2E0,7.3937E4,3.8617E4,1E0,1E0,5.1831413E-2,-5.365106E-2,-6.700567E-2,1.542928E-3,-3.882286E-2,3.712758E-2,1.1760187E-1,-3.537311E-3],"split_indices":[4,5,5,4,4,9,9,0,0,0,0,0,0,0,0],"split_type":[0,0,0,0,0,0,0,0,0,0,0,0,0,0,0],"sum_hessian":[2.0001277E3,9.414977E2,1.05863E3,5.5417993E2,3.8731772E2,7.625907E2,2.9603934E2,3.2864975E2,2.2553018E2,2.8408255E2,1.0323517E2,4.6229022E2,3.0030048E2,1.2866321E2,1.6737614E2],"tree_param":{"num_deleted":"0","num_feature":"11","num_nodes":"15","size_leaf_vector":"1"}},{"base_weights":[2.4594811E-3,1.4628607E-2,-4.006086E-1,-7.168819E-2,5.7789024E-2,-6.728264E-1,9.596234E-2,3.533136E-3,-5.7019856E-2,8.491611E-3,1.1206918E-1,-1.7350625E-1,-0E0,7.37285E-2,-2.8510217E-2],"categories":[],"categories_nodes":[],"categories_segments":[],"categories_sizes":[],"default_left":[0,0,0,0,0,0,0,0,0,0,0,0,0,0,0],"id":45,"left_children":[1,3,5,7,9,11,13,-1,-1,-1,-1,-1,-1,-1,-1],"loss_changes":[9.421273E0,7.2427273E0,8.495127E0,1.253414E1,9.335365E0,4.4494743E0,1.9828333E0,0E0,0E0,0E0,0E0,0E0,0E0,0E0,0E0],"parents":[2147483647,0,0,1,1,2,2,3,3,4,4,5,5,6,6],"right_children":[2,4,6,8,10,12,14,-1,-1,-1,-1,-1,-1,-1,-1],"split_conditions":[6.4E1,3.6E1,1E0,2E0,3E0,1.4549E5,6.37E2,3.533136E-3,-5.7019856E-2,8.491611E-3,1.1206918E-1,-1.7350625E-1,-0E0,7.37285E-2,-2.8510217E-2],"split_indices":[2,2,9,5,5,8,0,0,0,0,0,0,0,0,0],"split_type":[0,0,0,0,0,0,0,0,0,0,0,0,0,0,0],"sum_hessian":[1.9884717E3,1.9372822E3,5.118945E1,6.369558E2,1.3003263E3,3.321838E1,1.7971071E1,4.4890323E2,1.8805263E2,1.2690258E3,3.130058E1,2.3900423E1,9.317957E0,9.0683775E0,8.902695E0],"tree_param":{"num_deleted":"0","num_feature":"11","num_nodes":"15","size_leaf_vector":"1"}},{"base_weights":[6.380016E-3,-2.3064874E-3,3.436009E-1,2.0775731E-1,-1.3664773E-2,1.9932264E-1,1.2282912E-1,2.7200845E-3,1.0288421E-1,2.3621924E-3,-1.3664535E-2,6.0763683E-2,-0E0],"categories":[],"categories_nodes":[],"categories_segments":[],"categories_sizes":[],"default_left":[0,0,0,0,0,0,0,0,0,0,0,0,0],"id":46,"left_children":[1,3,5,7,9,11,-1,-1,-1,-1,-1,-1,-1],"loss_changes":[6.171951E0,4.451861E0,6.3840103E-1,5.115571E0,2.637804E0,6.907451E-1,0E0,0E0,0E0,0E0,0E0,0E0,0E0],"parents":[2147483647,0,0,1,1,2,2,3,3,4,4,5,5],"right_children":[2,4,6,8,10,12,-1,-1,-1,-1,-1,-1,-1],"split_conditions":[3E0,1E0,4E0,2E0,2E0,6.61E2,1.2282912E-1,2.7200845E-3,1.0288421E-1,2.3621924E-3,-1.3664535E-2,6.0763683E-2,-0E0],"split_indices":[5,3,5,5,5,0,0,0,0,0,0,0,0],"split_type":[0,0,0,0,0,0,0,0,0,0,0,0,0],"sum_hessian":[1.9841279E3,1.9362522E3,4.7875713E1,9.0372696E1,1.8458795E3,3.9298347E1,8.577365E0,6.0531357E1,2.9841343E1,1.2492399E3,5.9663965E2,2.154981E1,1.7748537E1],"tree_param":{"num_deleted":"0","num_feature":"11","num_nodes":"13","size_leaf_vector":"1"}},{"base_weights":[1.8421387E-2,1.8646368E-1,-8.982615E-3,3.402507E-2,4.364872E-1,-2.3176113E-2,3.66656E-1,-4.4152018E-2,2.7814774E-2,1.3970271E-1,-4.4574212E-2,-1.3310663E-2,7.5558857E-3,1.2965502E-1,2.1075998E-2],"categories":[],"categories_nodes":[],"categories_segments":[],"categories_sizes":[],"default_left":[0,0,0,0,0,0,0,0,0,0,0,0,0,0,0],"id":47,"left_children":[1,3,5,7,9,11,13,-1,-1,-1,-1,-1,-1,-1,-1],"loss_changes":[9.409787E0,1.0362991E1,8.879098E0,5.042081E0,1.9479916E1,4.447431E0,3.3506498E0,0E0,0E0,0E0,0E0,0E0,0E0,0E0,0E0],"parents":[2147483647,0,0,1,1,2,2,3,3,4,4,5,5,6,6],"right_children":[2,4,6,8,10,12,14,-1,-1,-1,-1,-1,-1,-1,-1],"split_conditions":[5.39E2,1.30789E5,1.75406E5,6.3093E4,1.26606E5,6.87E2,6.7622E4,-4.4152018E-2,2.7814774E-2,1.3970271E-1,-4.4574212E-2,-1.3310663E-2,7.5558857E-3,1.2965502E-1,2.1075998E-2],"split_indices":[0,8,4,4,4,0,8,0,0,0,0,0,0,0,0],"split_type":[0,0,0,0,0,0,0,0,0,0,0,0,0,0,0],"sum_hessian":[1.9980116E3,2.8119345E2,1.7168181E3,1.8070078E2,1.0049267E2,1.661396E3,5.542217E1,4.8366314E1,1.3233446E2,7.278709E1,2.7705584E1,9.7997327E2,6.8142267E2,2.1266518E1,3.415565E1],"tree_param":{"num_deleted":"0","num_feature":"11","num_nodes":"15","size_leaf_vector":"1"}},{"base_weights":[-4.8862263E-3,2.6888707E-1,-2.0103455E-2,1.00377485E-1,6.0941523E-1,-2.2301522E-1,-2.4418724E-3,-2.282886E-2,6.025703E-2,-0E0,1.6973153E-1,3.6307962E-3,-1.0683592E-1,5.786453E-2,-3.662061E-3],"categories":[],"categories_nodes":[],"categories_segments":[],"categories_sizes":[],"default_left":[0,0,0,0,0,0,0,0,0,0,0,0,0,0,0],"id":48,"left_children":[1,3,5,7,9,11,13,-1,-1,-1,-1,-1,-1,-1,-1],"loss_changes":[8.001299E0,4.769725E0,6.5020657E0,3.608613E0,5.0311384E0,1.15046425E1,7.798486E0,0E0,0E0,0E0,0E0,0E0,0E0,0E0,0E0],"parents":[2147483647,0,0,1,1,2,2,3,3,4,4,5,5,6,6],"right_children":[2,4,6,8,10,12,14,-1,-1,-1,-1,-1,-1,-1,-1],"split_conditions":[1E0,1E0,5.11E2,1.08007E5,1E0,4.82E2,5.31E2,-2.282886E-2,6.025703E-2,-0E0,1.6973153E-1,3.6307962E-3,-1.0683592E-1,5.786453E-2,-3.662061E-3],"split_indices":[3,10,0,4,6,0,0,0,0,0,0,0,0,0,0],"split_type":[0,0,0,0,0,0,0,0,0,0,0,0,0,0,0],"sum_hessian":[1.9688153E3,9.582169E1,1.8729937E3,7.039657E1,2.542512E1,1.4078429E2,1.7322094E3,3.268191E1,3.771466E1,7.750609E0,1.7674511E1,8.0154655E1,6.0629635E1,8.165632E1,1.650553E3],"tree_param":{"num_deleted":"0","num_feature":"11","num_nodes":"15","size_leaf_vector":"1"}},{"base_weights":[2.4968294E-2,3.4761462E-2,-4.343021E-1,1.0218701E-1,-3.354719E-2,-6.6199315E-1,3.3929985E-2,3.2291E-3,4.92642E-2,8.296948E-3,-2.887339E-2,-0E0,-2.0082803E-1],"categories":[],"categories_nodes":[],"categories_segments":[],"categories_sizes":[],"default_left":[0,0,0,0,0,0,0,0,0,0,0,0,0],"id":49,"left_children":[1,3,5,7,9,11,-1,-1,-1,-1,-1,-1,-1],"loss_changes":[8.654089E0,9.118774E0,6.5427237E0,1.2064651E1,8.20371E0,6.40942E0,0E0,0E0,0E0,0E0,0E0,0E0,0E0],"parents":[2147483647,0,0,1,1,2,2,3,3,4,4,5,5],"right_children":[2,4,6,8,10,12,-1,-1,-1,-1,-1,-1,-1],"split_conditions":[8.5E2,1E0,4.7E1,1.30789E5,1.16081E5,6.0887E4,3.3929985E-2,3.2291E-3,4.92642E-2,8.296948E-3,-2.887339E-2,-0E0,-2.0082803E-1],"split_indices":[0,1,2,8,8,8,0,0,0,0,0,0,0],"split_type":[0,0,0,0,0,0,0,0,0,0,0,0,0],"sum_hessian":[1.9911584E3,1.9562438E3,3.4914673E1,9.9060504E2,9.6563873E2,2.6209059E1,8.705614E0,6.281348E2,3.6247015E2,5.7227637E2,3.9336234E2,1.1288032E1,1.4921027E1],"tree_param":{"num_deleted":"0","num_feature":"11","num_nodes":"13","size_leaf_vector":"1"}},{"base_weights":[1.7748611E-3,8.046438E-3,-1.4790498E-1,-2.3837322E-1,2.2436325E-2,-8.105227E-2,4.33436E-2,1.260144E-1,1.8959081E-3],"categories":[],"categories_nodes":[],"categories_segments":[],"categories_sizes":[],"default_left":[0,0,0,0,0,0,0,0,0],"id":50,"left_children":[1,3,-1,5,7,-1,-1,-1,-1],"loss_changes":[8.503038E0,6.7947984E0,0E0,8.622469E0,1.404762E1,0E0,0E0,0E0,0E0],"parents":[2147483647,0,0,1,1,3,3,4,4],"right_children":[2,4,-1,6,8,-1,-1,-1,-1],"split_conditions":[7.2E1,1.1682E4,-1.4790498E-1,1E0,1.4828E4,-8.105227E-2,4.33436E-2,1.260144E-1,1.8959081E-3],"split_indices":[2,8,0,10,8,0,0,0,0],"split_type":[0,0,0,0,0,0,0,0,0],"sum_hessian":[1.9748948E3,1.9645687E3,1.032602E1,1.0026476E2,1.864304E3,7.5370285E1,2.4894478E1,3.2339764E1,1.8319642E3],"tree_param":{"num_deleted":"0","num_feature":"11","num_nodes":"9","size_leaf_vector":"1"}},{"base_weights":[-3.2174604E-3,-1.3770635E-2,3.7754956E-1,-1.7911972E-2,1.0052315E-1,1.1337709E-1,1.5938805E-2,6.408916E-4,-2.2049276E-2,-5.3408075E-2,7.882506E-2],"categories":[],"categories_nodes":[],"categories_segments":[],"categories_sizes":[],"default_left":[0,0,0,0,0,0,0,0,0,0,0],"id":51,"left_children":[1,3,5,7,-1,-1,9,-1,-1,-1,-1],"loss_changes":[7.5265565E0,3.6486034E0,2.8227234E0,3.8197515E0,0E0,0E0,3.2517586E0,0E0,0E0,0E0,0E0],"parents":[2147483647,0,0,1,1,2,2,3,3,6,6],"right_children":[2,4,6,8,-1,-1,10,-1,-1,-1,-1],"split_conditions":[3E0,2.04017E5,6.7E2,1.37948E5,1.0052315E-1,1.1337709E-1,4.9572E4,6.408916E-4,-2.2049276E-2,-5.3408075E-2,7.882506E-2],"split_indices":[5,4,0,4,0,0,4,0,0,0,0],"split_type":[0,0,0,0,0,0,0,0,0,0,0],"sum_hessian":[1.9521307E3,1.9067301E3,4.5400658E1,1.8982693E3,8.460726E0,2.6120487E1,1.928017E1,1.540061E3,3.5820822E2,1.03563E1,8.923869E0],"tree_param":{"num_deleted":"0","num_feature":"11","num_nodes":"11","size_leaf_vector":"1"}},{"base_weights":[2.504687E-2,3.709448E-3,2.3852679E-1,8.315617E-2,-4.2658713E-2,-0E0,3.4106603E-1,8.473199E-3,8.480122E-2,-6.4949684E-2,-1.8468277E-4,1.887311E-2,-8.551072E-2,7.7528045E-2,-1.4144178E-2],"categories":[],"categories_nodes":[],"categories_segments":[],"categories_sizes":[],"default_left":[0,0,0,0,0,0,0,0,0,0,0,0,0,0,0],"id":52,"left_children":[1,3,5,7,9,11,13,-1,-1,-1,-1,-1,-1,-1,-1],"loss_changes":[8.831012E0,6.7668166E0,4.6248837E0,8.909174E0,1.3156631E1,2.7376142E0,2.8744488E0,0E0,0E0,0E0,0E0,0E0,0E0,0E0,0E0],"parents":[2147483647,0,0,1,1,2,2,3,3,4,4,5,5,6,6],"right_children":[2,4,6,8,10,12,14,-1,-1,-1,-1,-1,-1,-1,-1],"split_conditions":[5.6E1,7.4149E4,6.0083E4,7.85E2,8.9804E4,6.8E1,7.9E2,8.473199E-3,8.480122E-2,-6.4949684E-2,-1.8468277E-4,1.887311E-2,-8.551072E-2,7.7528045E-2,-1.4144178E-2],"split_indices":[2,8,8,0,8,2,0,0,0,0,0,0,0,0,0],"split_type":[0,0,0,0,0,0,0,0,0,0,0,0,0,0,0],"sum_hessian":[1.987854E3,1.8161046E3,1.7174937E2,6.7579834E2,1.1403063E3,5.0543373E1,1.21206E2,6.112091E2,6.4589264E1,1.3950731E2,1.00079895E3,4.290094E1,7.642434E0,1.1133533E2,9.870677E0],"tree_param":{"num_deleted":"0","num_feature":"11","num_nodes":"15","size_leaf_vector":"1"}},{"base_weights":[-1.0911466E-2,7.214701E-2,-4.826019E-2,6.0720736E-1,3.567233E-2,-1.2853108E-1,3.173313E-2,5.2256864E-2,1.7873323E-1,-1.4012434E-2,4.4304468E-2,-5.615771E-2,-1.2672707E-2,3.370745E-2,-7.0655392E-3],"categories":[],"categories_nodes":[],"categories_segments":[],"categories_sizes":[],"default_left":[0,0,0,0,0,0,0,0,0,0,0,0,0,0,0],"id":53,"left_children":[1,3,5,7,9,11,13,-1,-1,-1,-1,-1,-1,-1,-1],"loss_changes":[6.174973E0,1.1188648E1,9.015963E0,1.3422003E0,1.1622768E1,6.502119E0,6.5105934E0,0E0,0E0,0E0,0E0,0E0,0E0,0E0,0E0],"parents":[2147483647,0,0,1,1,2,2,3,3,4,4,5,5,6,6],"right_children":[2,4,6,8,10,12,14,-1,-1,-1,-1,-1,-1,-1,-1],"split_conditions":[6.0887E4,1E0,1.30789E5,2E0,4.0861E4,1E0,1E0,5.2256864E-2,1.7873323E-1,-1.4012434E-2,4.4304468E-2,-5.615771E-2,-1.2672707E-2,3.370745E-2,-7.0655392E-3],"split_indices":[8,3,8,5,8,6,6,0,0,0,0,0,0,0,0],"split_type":[0,0,0,0,0,0,0,0,0,0,0,0,0,0,0],"sum_hessian":[1.9876484E3,6.067921E2,1.3808563E3,3.1982092E1,5.7481006E2,6.9395776E2,6.8689856E2,2.039949E1,1.1582602E1,3.6492813E2,2.098819E2,1.9843816E2,4.955196E2,2.2836983E2,4.5852872E2],"tree_param":{"num_deleted":"0","num_feature":"11","num_nodes":"15","size_leaf_vector":"1"}},{"base_weights":[1.4028579E-2,7.6413244E-2,-4.8277028E-2,1.0829925E-1,-2.1051748E-1,1.6598554E-2,-1.4265369E-1,1.5771862E-2,9.2583664E-2,1.1337085E-2,-1.3014305E-1,-6.984825E-3,7.584346E-2,-4.9450677E-2,2.621136E-2],"categories":[],"categories_nodes":[],"categories_segments":[],"categories_sizes":[],"default_left":[0,0,0,0,0,0,0,0,0,0,0,0,0,0,0],"id":54,"left_children":[1,3,5,7,9,11,13,-1,-1,-1,-1,-1,-1,-1,-1],"loss_changes":[7.745646E0,9.158199E0,6.175252E0,8.736012E0,1.2369703E1,1.1294513E1,1.1973465E1,0E0,0E0,0E0,0E0,0E0,0E0,0E0,0E0],"parents":[2147483647,0,0,1,1,2,2,3,3,4,4,5,5,6,6],"right_children":[2,4,6,8,10,12,14,-1,-1,-1,-1,-1,-1,-1,-1],"split_conditions":[1E0,1.80829E5,1.1386E5,1.68886E5,1.15142E5,1.0024E5,1.77357E5,1.5771862E-2,9.2583664E-2,1.1337085E-2,-1.3014305E-1,-6.984825E-3,7.584346E-2,-4.9450677E-2,2.621136E-2],"split_indices":[1,8,8,8,4,8,8,0,0,0,0,0,0,0,0],"split_type":[0,0,0,0,0,0,0,0,0,0,0,0,0,0,0],"sum_hessian":[1.975765E3,9.947103E2,9.810547E2,9.011639E2,9.354646E1,5.7755896E2,4.0349576E2,8.403325E2,6.0831326E1,5.9508717E1,3.403775E1,5.0724744E2,7.0311516E1,2.9492548E2,1.0857029E2],"tree_param":{"num_deleted":"0","num_feature":"11","num_nodes":"15","size_leaf_vector":"1"}},{"base_weights":[1.8328248E-2,8.295078E-2,-2.0439576E-2,-8.63916E-3,2.1293487E-1,-5.250371E-1,-1.2864316E-3,-9.402885E-3,5.9742518E-2,7.681434E-3,7.3841035E-2,-1.4100872E-1,-0E0,-4.732047E-3,3.5326898E-2],"categories":[],"categories_nodes":[],"categories_segments":[],"categories_sizes":[],"default_left":[0,0,0,0,0,0,0,0,0,0,0,0,0,0,0],"id":55,"left_children":[1,3,5,7,9,11,13,-1,-1,-1,-1,-1,-1,-1,-1],"loss_changes":[5.029775E0,9.176281E0,1.13722315E1,5.0310736E0,8.137298E0,4.6826067E0,4.6184936E0,0E0,0E0,0E0,0E0,0E0,0E0,0E0,0E0],"parents":[2147483647,0,0,1,1,2,2,3,3,4,4,5,5,6,6],"right_children":[2,4,6,8,10,12,14,-1,-1,-1,-1,-1,-1,-1,-1],"split_conditions":[7.4149E4,1.18022E5,7.7965E4,6.7622E4,4.1626E4,1E0,1.52509E5,-9.402885E-3,5.9742518E-2,7.681434E-3,7.3841035E-2,-1.4100872E-1,-0E0,-4.732047E-3,3.5326898E-2],"split_indices":[8,4,8,8,8,10,4,0,0,0,0,0,0,0,0],"split_type":[0,0,0,0,0,0,0,0,0,0,0,0,0,0,0],"sum_hessian":[1.9743383E3,7.4784424E2,1.2264939E3,4.369401E2,3.1090417E2,3.8113167E1,1.1883807E3,3.9509784E2,4.1842274E1,1.5283792E2,1.5806624E2,2.832891E1,9.784256E0,1.0644769E3,1.23903885E2],"tree_param":{"num_deleted":"0","num_feature":"11","num_nodes":"15","size_leaf_vector":"1"}},{"base_weights":[-2.8473828E-3,-1.47314295E-2,4.2284867E-1,-9.553586E-2,3.0012501E-2,-2.9234959E-2,6.386387E-1,6.50363E-2,-2.4510674E-2,-1.383197E-2,1.4524988E-2,4.7517583E-2,-7.431538E-2,2.0993347E-1,2.6749177E-2],"categories":[],"categories_nodes":[],"categories_segments":[],"categories_sizes":[],"default_left":[0,0,0,0,0,0,0,0,0,0,0,0,0,0,0],"id":56,"left_children":[1,3,5,7,9,11,13,-1,-1,-1,-1,-1,-1,-1,-1],"loss_changes":[9.644667E0,7.073238E0,5.744693E0,7.9364324E0,5.272003E0,2.400704E0,5.730897E0,0E0,0E0,0E0,0E0,0E0,0E0,0E0,0E0],"parents":[2147483647,0,0,1,1,2,2,3,3,4,4,5,5,6,6],"right_children":[2,4,6,8,10,12,14,-1,-1,-1,-1,-1,-1,-1,-1],"split_conditions":[1.8053E5,3.7E1,6.29E2,1E0,6.1671E4,3.7E1,6.85E2,6.50363E-2,-2.4510674E-2,-1.383197E-2,1.4524988E-2,4.7517583E-2,-7.431538E-2,2.0993347E-1,2.6749177E-2],"split_indices":[4,2,0,3,4,2,0,0,0,0,0,0,0,0,0],"split_type":[0,0,0,0,0,0,0,0,0,0,0,0,0,0,0],"sum_hessian":[1.9759557E3,1.9292727E3,4.668294E1,6.9351196E2,1.2357607E3,1.4982608E1,3.1700335E1,3.628519E1,6.5722675E2,3.6341022E2,8.723506E2,7.6382365E0,7.344371E0,1.340879E1,1.8291546E1],"tree_param":{"num_deleted":"0","num_feature":"11","num_nodes":"15","size_leaf_vector":"1"}},{"base_weights":[-5.353698E-3,4.1713122E-2,-8.7567165E-2,-8.027054E-3,2.4426283E-1,-6.0449544E-2,-6.714871E-1,1.7078415E-2,-3.1557683E-2,9.7723655E-2,2.5603324E-2,-1.5161029E-2,1.1627102E-1,-1.6887039E-1,-4.5815703E-2],"categories":[],"categories_nodes":[],"categories_segments":[],"categories_sizes":[],"default_left":[0,0,0,0,0,0,0,0,0,0,0,0,0,0,0],"id":57,"left_children":[1,3,5,7,9,11,13,-1,-1,-1,-1,-1,-1,-1,-1],"loss_changes":[7.6234837E0,1.2718562E1,1.0475121E1,1.4057415E1,6.120757E0,6.5714264E0,2.421236E-1,0E0,0E0,0E0,0E0,0E0,0E0,0E0,0E0],"parents":[2147483647,0,0,1,1,2,2,3,3,4,4,5,5,6,6],"right_children":[2,4,6,8,10,12,14,-1,-1,-1,-1,-1,-1,-1,-1],"split_conditions":[1.19624E5,1.07747E5,1.92387E5,2E0,1.10949E5,3E0,1.96342E5,1.7078415E-2,-3.1557683E-2,9.7723655E-2,2.5603324E-2,-1.5161029E-2,1.1627102E-1,-1.6887039E-1,-4.5815703E-2],"split_indices":[4,4,8,5,4,5,8,0,0,0,0,0,0,0,0],"split_type":[0,0,0,0,0,0,0,0,0,0,0,0,0,0,0],"sum_hessian":[1.9485634E3,1.232985E3,7.1557837E2,9.897875E2,2.4319754E2,6.907306E2,2.4847801E1,6.067665E2,3.8302103E2,7.0462616E1,1.7273492E2,6.8041864E2,1.0311917E1,1.2974984E1,1.1872816E1],"tree_param":{"num_deleted":"0","num_feature":"11","num_nodes":"15","size_leaf_vector":"1"}},{"base_weights":[-7.89887E-3,-3.400913E-1,-4.5467677E-5,-1.4407885E-1,-1.23074464E-1,2.3222946E-1,-1.583631E-2,5.0535392E-2,-6.966446E-2,-3.4877013E-2,8.8784315E-2,9.267008E-2,-4.6659443E-3],"categories":[],"categories_nodes":[],"categories_segments":[],"categories_sizes":[],"default_left":[0,0,0,0,0,0,0,0,0,0,0,0,0],"id":58,"left_children":[1,3,5,-1,7,9,11,-1,-1,-1,-1,-1,-1],"loss_changes":[4.679791E0,2.1382103E0,6.7258406E0,0E0,3.4240358E0,1.0680544E1,5.992179E0,0E0,0E0,0E0,0E0,0E0,0E0],"parents":[2147483647,0,0,1,1,2,2,4,4,5,5,6,6],"right_children":[2,4,6,-1,8,10,12,-1,-1,-1,-1,-1,-1],"split_conditions":[4.46E3,3.5E1,1.646E4,-1.4407885E-1,3.9E1,6.08E2,4.29E2,5.0535392E-2,-6.966446E-2,-3.4877013E-2,8.8784315E-2,9.267008E-2,-4.6659443E-3],"split_indices":[8,2,8,0,2,0,0,0,0,0,0,0,0],"split_type":[0,0,0,0,0,0,0,0,0,0,0,0,0],"sum_hessian":[1.9192283E3,3.6498856E1,1.8827295E3,7.3728986E0,2.9125957E1,1.1145307E2,1.7712764E3,9.023993E0,2.0101963E1,3.6843E1,7.461007E1,2.053426E1,1.7507422E3],"tree_param":{"num_deleted":"0","num_feature":"11","num_nodes":"13","size_leaf_vector":"1"}},{"base_weights":[6.944594E-3,-8.213456E-2,4.1546796E-2,1.2344058E-1,-1.6848554E-1,5.6060117E-2,-3.3133867E-1,6.8523765E-2,-3.672546E-2,-1.1061382E-1,-1.1389256E-2,8.220469E-3,1.3834631E-1,-0E0,-1.3889888E-1],"categories":[],"categories_nodes":[],"categories_segments":[],"categories_sizes":[],"default_left":[0,0,0,0,0,0,0,0,0,0,0,0,0,0,0],"id":59,"left_children":[1,3,5,7,9,11,13,-1,-1,-1,-1,-1,-1,-1,-1],"loss_changes":[6.006115E0,9.750461E0,7.5040717E0,1.1204963E1,1.5808711E1,1.2188972E1,5.5508494E0,0E0,0E0,0E0,0E0,0E0,0E0,0E0,0E0],"parents":[2147483647,0,0,1,1,2,2,3,3,4,4,5,5,6,6],"right_children":[2,4,6,8,10,12,14,-1,-1,-1,-1,-1,-1,-1,-1],"split_conditions":[3.5E1,7.1667E4,1.93135E5,2E0,1.04339E5,1.90011E5,1.15142E5,6.8523765E-2,-3.672546E-2,-1.1061382E-1,-1.1389256E-2,8.220469E-3,1.3834631E-1,-0E0,-1.3889888E-1],"split_indices":[2,4,8,5,4,8,4,0,0,0,0,0,0,0,0],"split_type":[0,0,0,0,0,0,0,0,0,0,0,0,0,0,0],"sum_hessian":[1.9511926E3,5.358763E2,1.4153163E3,1.5445001E2,3.8142624E2,1.3689641E3,4.635226E1,9.168501E1,6.2764996E1,7.928752E1,3.0213873E2,1.3442299E3,2.4734184E1,2.8154968E1,1.8197292E1],"tree_param":{"num_deleted":"0","num_feature":"11","num_nodes":"15","size_leaf_vector":"1"}},{"base_weights":[1.2068068E-2,5.728033E-2,-3.348334E-2,8.516337E-3,1.666678E-1,-1.8654966E-1,2.3758061E-2,-1.436919E-2,3.7456844E-2,7.091892E-2,8.500214E-3,-4.967089E-2,9.7621195E-2,1.4747798E-2,-2.8001383E-2],"categories":[],"categories_nodes":[],"categories_segments":[],"categories_sizes":[],"default_left":[0,0,0,0,0,0,0,0,0,0,0,0,0,0,0],"id":60,"left_children":[1,3,5,7,9,11,13,-1,-1,-1,-1,-1,-1,-1,-1],"loss_changes":[4.083579E0,5.1510344E0,8.699313E0,1.0284223E1,6.5673923E0,1.1616811E1,5.771847E0,0E0,0E0,0E0,0E0,0E0,0E0,0E0,0E0],"parents":[2147483647,0,0,1,1,2,2,3,3,4,4,5,5,6,6],"right_children":[2,4,6,8,10,12,14,-1,-1,-1,-1,-1,-1,-1,-1],"split_conditions":[6.52E2,1.40857E5,6.87E2,6.12E2,5.56E2,1.66527E5,1.33191E5,-1.436919E-2,3.7456844E-2,7.091892E-2,8.500214E-3,-4.967089E-2,9.7621195E-2,1.4747798E-2,-2.8001383E-2],"split_indices":[0,8,0,0,0,4,4,0,0,0,0,0,0,0,0],"split_type":[0,0,0,0,0,0,0,0,0,0,0,0,0,0,0],"sum_hessian":[1.9616068E3,9.948397E2,9.66767E2,6.981441E2,2.966956E2,2.6481464E2,7.0195245E2,4.7983743E2,2.1830669E2,1.1114484E2,1.8555077E2,2.4684311E2,1.7971508E1,5.4459686E2,1.5735558E2],"tree_param":{"num_deleted":"0","num_feature":"11","num_nodes":"15","size_leaf_vector":"1"}},{"base_weights":[1.7091526E-2,1.1786335E-2,1.2667452E-1,3.2832585E-2,-1.5990736E-1,-2.2482243E-3,2.693443E-2,2.4668135E-2,-1.6993657E-1],"categories":[],"categories_nodes":[],"categories_segments":[],"categories_sizes":[],"default_left":[0,0,0,0,0,0,0,0,0],"id":61,"left_children":[1,3,-1,5,7,-1,-1,-1,-1],"loss_changes":[5.779009E0,7.0038285E0,0E0,8.034173E0,4.234915E1,0E0,0E0,0E0,0E0],"parents":[2147483647,0,0,1,1,3,3,4,4],"right_children":[2,4,-1,6,8,-1,-1,-1,-1],"split_conditions":[2.04017E5,1.49318E5,1.2667452E-1,1E0,1E0,-2.2482243E-3,2.693443E-2,2.4668135E-2,-1.6993657E-1],"split_indices":[4,4,0,9,9,0,0,0,0],"split_type":[0,0,0,0,0,0,0,0,0],"sum_hessian":[1.971301E3,1.9611371E3,1.0163982E1,1.7557812E3,2.0535585E2,1.2216914E3,5.3408984E2,1.4745955E2,5.789631E1],"tree_param":{"num_deleted":"0","num_feature":"11","num_nodes":"9","size_leaf_vector":"1"}},{"base_weights":[-2.148595E-3,3.0535373E-1,-1.7413434E-2,4.7309628E-1,-1.8633604E-1,5.5314763E-3,-1.4715719E-1,5.896295E-2,1.8137793E-1,-1.16786875E-1,3.5273045E-2,-1.9827872E-3,3.3520706E-2,2.0580603E-2,-5.8334734E-2],"categories":[],"categories_nodes":[],"categories_segments":[],"categories_sizes":[],"default_left":[0,0,0,0,0,0,0,0,0,0,0,0,0,0,0],"id":62,"left_children":[1,3,5,7,9,11,13,-1,-1,-1,-1,-1,-1,-1,-1],"loss_changes":[8.907156E0,8.113208E0,5.708749E0,2.8517761E0,4.5060115E0,4.1365795E0,1.0730099E1,0E0,0E0,0E0,0E0,0E0,0E0,0E0,0E0],"parents":[2147483647,0,0,1,1,2,2,3,3,4,4,5,5,6,6],"right_children":[2,4,6,8,10,12,14,-1,-1,-1,-1,-1,-1,-1,-1],"split_conditions":[4.79E2,1.29717E5,7.52E2,4.74E2,3.8E1,7.27E2,3.6E1,5.896295E-2,1.8137793E-1,-1.16786875E-1,3.5273045E-2,-1.9827872E-3,3.3520706E-2,2.0580603E-2,-5.8334734E-2],"split_indices":[0,4,0,0,2,0,2,0,0,0,0,0,0,0,0],"split_type":[0,0,0,0,0,0,0,0,0,0,0,0,0,0,0],"sum_hessian":[1.9482516E3,8.454794E1,1.8637036E3,6.469857E1,1.9849377E1,1.5811584E3,2.825452E2,5.3439293E1,1.1259276E1,9.329518E0,1.0519858E1,1.4422377E3,1.3892072E2,1.0147711E2,1.8106807E2],"tree_param":{"num_deleted":"0","num_feature":"11","num_nodes":"15","size_leaf_vector":"1"}},{"base_weights":[-7.4966718E-3,-1.4465359E-2,2.7254534E-1,8.051945E-2,-1.8778294E-2,3.972129E-1,6.370533E-2,-3.3788785E-2,-5.144849E-4,8.179609E-3,1.04225986E-1,4.357176E-2,-4.6532005E-3],"categories":[],"categories_nodes":[],"categories_segments":[],"categories_sizes":[],"default_left":[0,0,0,0,0,0,0,0,0,0,0,0,0],"id":63,"left_children":[1,3,5,-1,7,9,11,-1,-1,-1,-1,-1,-1],"loss_changes":[3.5675912E0,3.09165E0,5.6125593E-1,0E0,4.4469624E0,3.7670898E-1,5.6108916E-1,0E0,0E0,0E0,0E0,0E0,0E0],"parents":[2147483647,0,0,1,1,2,2,4,4,5,5,6,6],"right_children":[2,4,6,-1,8,10,12,-1,-1,-1,-1,-1,-1],"split_conditions":[3E0,4.16E2,1E0,8.051945E-2,5.2E2,5E0,4E0,-3.3788785E-2,-5.144849E-4,8.179609E-3,1.04225986E-1,4.357176E-2,-4.6532005E-3],"split_indices":[5,0,1,0,0,3,3,0,0,0,0,0,0],"split_type":[0,0,0,0,0,0,0,0,0,0,0,0,0],"sum_hessian":[1.9452484E3,1.906128E3,3.91203E1,1.24107485E1,1.8937174E3,1.8674297E1,2.0446005E1,1.7386179E2,1.7198556E3,8.616961E0,1.0057336E1,8.807801E0,1.1638204E1],"tree_param":{"num_deleted":"0","num_feature":"11","num_nodes":"13","size_leaf_vector":"1"}},{"base_weights":[-2.1803731E-2,1.2333776E-1,-3.3622496E-2,-3.852978E-2,5.657133E-1,2.9856026E-1,-4.114093E-2,2.8216606E-2,-8.10828E-2,1.7380302E-1,1.9279476E-2,-4.198492E-2,1.0072885E-1,-3.3886638E-2,-4.327574E-3],"categories":[],"categories_nodes":[],"categories_segments":[],"categories_sizes":[],"default_left":[0,0,0,0,0,0,0,0,0,0,0,0,0,0,0],"id":64,"left_children":[1,3,5,7,9,11,13,-1,-1,-1,-1,-1,-1,-1,-1],"loss_changes":[3.2765806E0,1.0772365E1,4.3338575E0,7.578937E0,4.294442E0,4.764727E0,4.2467184E0,0E0,0E0,0E0,0E0,0E0,0E0,0E0,0E0],"parents":[2147483647,0,0,1,1,2,2,3,3,4,4,5,5,6,6],"right_children":[2,4,6,8,10,12,14,-1,-1,-1,-1,-1,-1,-1,-1],"split_conditions":[1.4828E4,1.1682E4,2.3E1,7E0,1E0,4E0,3.1E1,2.8216606E-2,-8.10828E-2,1.7380302E-1,1.9279476E-2,-4.198492E-2,1.0072885E-1,-3.3886638E-2,-4.327574E-3],"split_indices":[8,8,2,3,1,3,2,0,0,0,0,0,0,0,0],"split_type":[0,0,0,0,0,0,0,0,0,0,0,0,0,0,0],"sum_hessian":[1.9453176E3,1.3655469E2,1.808763E3,1.01660545E2,3.4894142E1,3.2804863E1,1.775958E3,6.848464E1,3.31759E1,1.7315002E1,1.7579138E1,7.9929905E0,2.4811874E1,2.2251697E2,1.553441E3],"tree_param":{"num_deleted":"0","num_feature":"11","num_nodes":"15","size_leaf_vector":"1"}},{"base_weights":[-6.175769E-3,2.546732E-1,-1.6926099E-2,-7.606069E-2,4.4777825E-1,-5.093707E-1,-9.866327E-3,-0E0,1.1205395E-1,-1.8230481E-1,3.9208937E-2,7.292008E-2,-3.4231076E-3],"categories":[],"categories_nodes":[],"categories_segments":[],"categories_sizes":[],"default_left":[0,0,0,0,0,0,0,0,0,0,0,0,0],"id":65,"left_children":[1,3,5,-1,7,9,11,-1,-1,-1,-1,-1,-1],"loss_changes":[5.265451E0,9.993018E0,6.011658E0,0E0,3.47855E0,8.574049E0,4.749773E0,0E0,0E0,0E0,0E0,0E0,0E0],"parents":[2147483647,0,0,1,1,2,2,4,4,5,5,6,6],"right_children":[2,4,6,-1,8,10,12,-1,-1,-1,-1,-1,-1],"split_conditions":[2.5E1,5.1871E4,2.6E1,-7.606069E-2,5.76E2,1.35927E5,3.086E3,-0E0,1.1205395E-1,-1.8230481E-1,3.9208937E-2,7.292008E-2,-3.4231076E-3],"split_indices":[2,8,2,0,0,4,8,0,0,0,0,0,0],"split_type":[0,0,0,0,0,0,0,0,0,0,0,0,0],"sum_hessian":[1.9497894E3,6.9003365E1,1.880786E3,1.375336E1,5.525E1,1.9552116E1,1.8612339E3,1.0683613E1,4.4566387E1,1.2425251E1,7.126866E0,2.8046307E1,1.8331876E3],"tree_param":{"num_deleted":"0","num_feature":"11","num_nodes":"13","size_leaf_vector":"1"}},{"base_weights":[1.234416E-2,-9.96977E-3,1.3094275E-1,2.1973158E-1,-2.3395251E-2,4.0554535E-1,1.2883953E-2,1.3740271E-1,9.29138E-3,-4.9497873E-2,-1.948919E-3,-0E0,1.3021474E-1,-4.2858865E-2,4.6118136E-2],"categories":[],"categories_nodes":[],"categories_segments":[],"categories_sizes":[],"default_left":[0,0,0,0,0,0,0,0,0,0,0,0,0,0,0],"id":66,"left_children":[1,3,5,7,9,11,13,-1,-1,-1,-1,-1,-1,-1,-1],"loss_changes":[5.3454065E0,4.939384E0,9.91907E0,6.221541E0,4.5460987E0,9.674901E0,1.1701639E1,0E0,0E0,0E0,0E0,0E0,0E0,0E0,0E0],"parents":[2147483647,0,0,1,1,2,2,3,3,4,4,5,5,6,6],"right_children":[2,4,6,8,10,12,14,-1,-1,-1,-1,-1,-1,-1,-1],"split_conditions":[5E1,1E0,1E0,3.7171E4,1.2483E4,5.4E1,1.04339E5,1.3740271E-1,9.29138E-3,-4.9497873E-2,-1.948919E-3,-0E0,1.3021474E-1,-4.2858865E-2,4.6118136E-2],"split_indices":[2,3,7,8,8,2,4,0,0,0,0,0,0,0,0],"split_type":[0,0,0,0,0,0,0,0,0,0,0,0,0,0,0],"sum_hessian":[1.9666993E3,1.6520243E3,3.1467502E2,8.286906E1,1.5691553E3,8.84037E1,2.2627132E2,1.6845373E1,6.602369E1,8.097258E1,1.4881827E3,3.4340443E1,5.4063255E1,1.0851759E2,1.1775373E2],"tree_param":{"num_deleted":"0","num_feature":"11","num_nodes":"15","size_leaf_vector":"1"}},{"base_weights":[1.9926154E-3,7.415303E-3,-1.5820366E-1,-2.1863142E-1,2.1021865E-2,-7.378757E-3,-8.135211E-2,1.1117601E-1,1.7873704E-3],"categories":[],"categories_nodes":[],"categories_segments":[],"categories_sizes":[],"default_left":[0,0,0,0,0,0,0,0,0],"id":67,"left_children":[1,3,-1,5,7,-1,-1,-1,-1],"loss_changes":[7.6666636E0,5.826559E0,0E0,3.1411748E0,1.1362533E1,0E0,0E0,0E0,0E0],"parents":[2147483647,0,0,1,1,3,3,4,4],"right_children":[2,4,-1,6,8,-1,-1,-1,-1],"split_conditions":[7.4E1,1.1682E4,-1.5820366E-1,6.035E3,1.4828E4,-7.378757E-3,-8.135211E-2,1.1117601E-1,1.7873704E-3],"split_indices":[2,8,0,8,8,0,0,0,0],"split_type":[0,0,0,0,0,0,0,0,0],"sum_hessian":[1.9532437E3,1.9461499E3,7.0937057E0,1.0204444E2,1.8441055E3,5.764953E1,4.4394913E1,3.394697E1,1.8101586E3],"tree_param":{"num_deleted":"0","num_feature":"11","num_nodes":"9","size_leaf_vector":"1"}},{"base_weights":[-7.068675E-3,-1.0737852E-2,8.4378056E-2,-3.9328244E-3,-2.5595793E-1,-7.653964E-3,1.4040023E-2,2.8736502E-4,-2.0871766E-1],"categories":[],"categories_nodes":[],"categories_segments":[],"categories_sizes":[],"default_left":[0,0,0,0,0,0,0,0,0],"id":68,"left_children":[1,3,-1,5,7,-1,-1,-1,-1],"loss_changes":[2.6725729E0,2.9649985E0,0E0,4.798461E0,1.0824747E1,0E0,0E0,0E0,0E0],"parents":[2147483647,0,0,1,1,3,3,4,4],"right_children":[2,4,-1,6,8,-1,-1,-1,-1],"split_conditions":[2.04017E5,1.76913E5,8.4378056E-2,1E0,1E0,-7.653964E-3,1.4040023E-2,2.8736502E-4,-2.0871766E-1],"split_indices":[4,4,0,9,9,0,0,0,0],"split_type":[0,0,0,0,0,0,0,0,0],"sum_hessian":[1.9398651E3,1.9305579E3,9.30731E0,1.887341E3,4.321687E1,1.3007609E3,5.865801E2,3.537703E1,7.8398385E0],"tree_param":{"num_deleted":"0","num_feature":"11","num_nodes":"9","size_leaf_vector":"1"}},{"base_weights":[1.289164E-2,3.0509658E-2,-1.1709666E-1,7.9693206E-2,-6.2787466E-2,-2.2531584E-1,3.075502E-1,-1.1000657E-1,1.7814681E-2,7.937401E-2,-1.9741405E-2,-6.262272E-2,2.8575806E-2,1.05925575E-1,-9.331971E-2],"categories":[],"categories_nodes":[],"categories_segments":[],"categories_sizes":[],"default_left":[0,0,0,0,0,0,0,0,0,0,0,0,0,0,0],"id":69,"left_children":[1,3,5,7,9,11,13,-1,-1,-1,-1,-1,-1,-1,-1],"loss_changes":[4.4059024E0,7.9867706E0,1.0717562E1,6.535376E0,9.695943E0,6.407812E0,9.281625E0,0E0,0E0,0E0,0E0,0E0,0E0,0E0,0E0],"parents":[2147483647,0,0,1,1,2,2,3,3,4,4,5,5,6,6],"right_children":[2,4,6,8,10,12,14,-1,-1,-1,-1,-1,-1,-1,-1],"split_conditions":[7.67E2,7E0,9E0,2.2E1,4.86E2,5E1,1E0,-1.1000657E-1,1.7814681E-2,7.937401E-2,-1.9741405E-2,-6.262272E-2,2.8575806E-2,1.05925575E-1,-9.331971E-2],"split_indices":[0,3,3,2,0,2,10,0,0,0,0,0,0,0,0],"split_type":[0,0,0,0,0,0,0,0,0,0,0,0,0,0,0],"sum_hessian":[1.9488689E3,1.7263999E3,2.2246889E2,1.137952E3,5.884479E2,1.8103494E2,4.143395E1,1.0907352E1,1.1270447E3,3.699129E1,5.514566E2,1.489751E2,3.2059845E1,3.4428562E1,7.0053873E0],"tree_param":{"num_deleted":"0","num_feature":"11","num_nodes":"15","size_leaf_vector":"1"}},{"base_weights":[-3.7412033E-3,-1.7272843E-2,9.1379136E-2,3.7842304E-2,-7.408019E-2,1.8086275E-1,-2.106306E-1,3.7465822E-3,7.322795E-2,-6.03535E-3,-7.430931E-2,8.525504E-2,1.3709492E-2,3.6946144E-2,-6.7434214E-2],"categories":[],"categories_nodes":[],"categories_segments":[],"categories_sizes":[],"default_left":[0,0,0,0,0,0,0,0,0,0,0,0,0,0,0],"id":70,"left_children":[1,3,5,7,9,11,13,-1,-1,-1,-1,-1,-1,-1,-1],"loss_changes":[2.445693E0,5.4414644E0,6.501823E0,5.0284667E0,1.0754883E1,4.492858E0,3.1347852E0,0E0,0E0,0E0,0E0,0E0,0E0,0E0,0E0],"parents":[2147483647,0,0,1,1,2,2,3,3,4,4,5,5,6,6],"right_children":[2,4,6,8,10,12,14,-1,-1,-1,-1,-1,-1,-1,-1],"split_conditions":[1.77357E5,1E0,1E0,1.68886E5,1.55248E5,1.83284E5,1.80197E5,3.7465822E-3,7.322795E-2,-6.03535E-3,-7.430931E-2,8.525504E-2,1.3709492E-2,3.6946144E-2,-6.7434214E-2],"split_indices":[8,1,10,8,8,8,8,0,0,0,0,0,0,0,0],"split_type":[0,0,0,0,0,0,0,0,0,0,0,0,0,0,0],"sum_hessian":[1.9465507E3,1.7169111E3,2.296395E2,8.6334735E2,8.535638E2,1.8125237E2,4.8387127E1,8.237313E2,3.961607E1,7.515156E2,1.020482E2,4.972389E1,1.3152847E2,9.258406E0,3.9128723E1],"tree_param":{"num_deleted":"0","num_feature":"11","num_nodes":"15","size_leaf_vector":"1"}},{"base_weights":[-1.5358662E-2,-2.0631598E-3,-3.2549304E-1,-7.993383E-3,1.19369745E-1,-4.1121933E-1,2.269287E-2,-5.2189596E-2,-0E0,-7.57052E-3,-1.2836125E-1],"categories":[],"categories_nodes":[],"categories_segments":[],"categories_sizes":[],"default_left":[0,0,0,0,0,0,0,0,0,0,0],"id":71,"left_children":[1,3,5,7,-1,9,-1,-1,-1,-1,-1],"loss_changes":[7.5911565E0,6.007015E0,3.3854742E0,3.7518358E0,0E0,4.919631E0,0E0,0E0,0E0,0E0,0E0],"parents":[2147483647,0,0,1,1,2,2,3,3,5,5],"right_children":[2,4,6,8,-1,10,-1,-1,-1,-1,-1],"split_conditions":[1.92387E5,1.91521E5,7.73E2,4.65E2,1.19369745E-1,6.11E2,2.269287E-2,-5.2189596E-2,-0E0,-7.57052E-3,-1.2836125E-1],"split_indices":[8,8,0,0,0,0,0,0,0,0,0],"split_type":[0,0,0,0,0,0,0,0,0,0,0],"sum_hessian":[1.9162505E3,1.8453958E3,7.085469E1,1.8338406E3,1.1555109E1,6.1448227E1,9.406468E0,5.182345E1,1.7820172E3,2.7338778E1,3.4109447E1],"tree_param":{"num_deleted":"0","num_feature":"11","num_nodes":"11","size_leaf_vector":"1"}},{"base_weights":[1.2553275E-2,-8.247993E-2,3.7224274E-2,-1.9005437E-1,7.619395E-2,2.783464E-2,4.211348E-1,-1.9807568E-2,-1.6474101E-1,2.0337527E-1,-9.409793E-3,2.7072165E-2,-4.562085E-4,1.1569581E-2,1.3127616E-1],"categories":[],"categories_nodes":[],"categories_segments":[],"categories_sizes":[],"default_left":[0,0,0,0,0,0,0,0,0,0,0,0,0,0,0],"id":72,"left_children":[1,3,5,7,9,11,13,-1,-1,-1,-1,-1,-1,-1,-1],"loss_changes":[4.5412354E0,6.9291067E0,5.1146045E0,1.2545918E1,1.9690962E1,5.090106E0,2.0305505E0,0E0,0E0,0E0,0E0,0E0,0E0,0E0,0E0],"parents":[2147483647,0,0,1,1,2,2,3,3,4,4,5,5,6,6],"right_children":[2,4,6,8,10,12,14,-1,-1,-1,-1,-1,-1,-1,-1],"split_conditions":[3.3E1,1.21161E5,3E0,1.13913E5,1.23217E5,5.7E2,4.9572E4,-1.9807568E-2,-1.6474101E-1,2.0337527E-1,-9.409793E-3,2.7072165E-2,-4.562085E-4,1.1569581E-2,1.3127616E-1],"split_indices":[2,4,5,4,4,0,4,0,0,0,0,0,0,0,0],"split_type":[0,0,0,0,0,0,0,0,0,0,0,0,0,0,0],"sum_hessian":[1.9446758E3,3.9002847E2,1.5546473E3,2.3560873E2,1.5441974E2,1.5253087E3,2.9338516E1,2.124521E2,2.3156626E1,1.462788E1,1.3979187E2,3.371757E2,1.188133E3,1.5650331E1,1.3688186E1],"tree_param":{"num_deleted":"0","num_feature":"11","num_nodes":"15","size_leaf_vector":"1"}},{"base_weights":[2.355132E-2,6.865138E-2,-2.4159871E-2,1.9214977E-2,2.186823E-1,5.8837693E-2,-1.0825814E-1,6.477646E-3,-8.039969E-2,5.8935683E-2,-1.0226294E-1,-3.2319229E-3,8.0070905E-2,-3.8306605E-2,3.8240913E-2],"categories":[],"categories_nodes":[],"categories_segments":[],"categories_sizes":[],"default_left":[0,0,0,0,0,0,0,0,0,0,0,0,0,0,0],"id":73,"left_children":[1,3,5,7,9,11,13,-1,-1,-1,-1,-1,-1,-1,-1],"loss_changes":[4.198808E0,7.1771803E0,6.567144E0,3.9380078E0,1.4016812E1,1.2324535E1,1.1886516E1,0E0,0E0,0E0,0E0,0E0,0E0,0E0,0E0],"parents":[2147483647,0,0,1,1,2,2,3,3,4,4,5,5,6,6],"right_children":[2,4,6,8,10,12,14,-1,-1,-1,-1,-1,-1,-1,-1],"split_conditions":[1E0,1E0,6.49E2,1.78742E5,7.74E2,6.29E2,7.74E2,6.477646E-3,-8.039969E-2,5.8935683E-2,-1.0226294E-1,-3.2319229E-3,8.0070905E-2,-3.8306605E-2,3.8240913E-2],"split_indices":[7,10,0,4,0,0,0,0,0,0,0,0,0,0,0],"split_type":[0,0,0,0,0,0,0,0,0,0,0,0,0,0,0],"sum_hessian":[1.9217899E3,9.97575E2,9.242149E2,7.595897E2,2.379853E2,4.5992276E2,4.642921E2,7.43332E2,1.6257729E1,2.1948717E2,1.8498135E1,3.7861414E2,8.13086E1,3.6729556E2,9.699655E1],"tree_param":{"num_deleted":"0","num_feature":"11","num_nodes":"15","size_leaf_vector":"1"}},{"base_weights":[-3.602848E-2,4.382451E-2,-7.236504E-2,8.004305E-2,-2.0686379E-1,-1.9243991E-1,-2.3408815E-2,4.6391826E-2,-1.8043306E-2,-7.082341E-2,-1.8548958E-2,7.281428E-2,-1.14076715E-2],"categories":[],"categories_nodes":[],"categories_segments":[],"categories_sizes":[],"default_left":[0,0,0,0,0,0,0,0,0,0,0,0,0],"id":74,"left_children":[1,3,5,7,-1,9,11,-1,-1,-1,-1,-1,-1],"loss_changes":[5.6065216E0,2.2654577E1,7.567743E0,1.5254134E1,0E0,5.4816513E0,1.2240303E1,0E0,0E0,0E0,0E0,0E0,0E0],"parents":[2147483647,0,0,1,1,2,2,3,3,5,5,6,6],"right_children":[2,4,6,8,-1,10,12,-1,-1,-1,-1,-1,-1],"split_conditions":[7.0541E4,1E0,1.07747E5,2E0,-2.0686379E-1,4E0,1.10949E5,4.6391826E-2,-1.8043306E-2,-7.082341E-2,-1.8548958E-2,7.281428E-2,-1.14076715E-2],"split_indices":[4,9,4,5,0,3,4,0,0,0,0,0,0],"split_type":[0,0,0,0,0,0,0,0,0,0,0,0,0],"sum_hessian":[1.9119275E3,5.8899817E2,1.3229293E3,5.752305E2,1.3767656E1,3.7299765E2,9.499317E2,3.0613736E2,2.6909314E2,1.3357936E2,2.3941827E2,6.956277E1,8.8036896E2],"tree_param":{"num_deleted":"0","num_feature":"11","num_nodes":"13","size_leaf_vector":"1"}},{"base_weights":[2.7261719E-3,2.2394809E-1,-1.649128E-2,3.520956E-1,-6.69009E-2,-1.1102416E-3,-2.1954286E-1,8.6384736E-2,-7.131912E-2,-5.05614E-2,7.755134E-2,-3.0979127E-2,3.94562E-3,8.649007E-2,-7.682512E-2],"categories":[],"categories_nodes":[],"categories_segments":[],"categories_sizes":[],"default_left":[0,0,0,0,0,0,0,0,0,0,0,0,0,0,0],"id":75,"left_children":[1,3,5,7,9,11,13,-1,-1,-1,-1,-1,-1,-1,-1],"loss_changes":[8.427652E0,6.3178773E0,5.323336E0,7.257802E0,4.6110916E0,5.470457E0,1.3704214E1,0E0,0E0,0E0,0E0,0E0,0E0,0E0,0E0],"parents":[2147483647,0,0,1,1,2,2,3,3,4,4,5,5,6,6],"right_children":[2,4,6,8,10,12,14,-1,-1,-1,-1,-1,-1,-1,-1],"split_conditions":[1.646E4,4.4E1,7.94E2,7.8E2,7.49E2,4.0861E4,3.5817E4,8.6384736E-2,-7.131912E-2,-5.05614E-2,7.755134E-2,-3.0979127E-2,3.94562E-3,8.649007E-2,-7.682512E-2],"split_indices":[8,2,0,0,0,8,8,0,0,0,0,0,0,0,0],"split_type":[0,0,0,0,0,0,0,0,0,0,0,0,0,0,0],"sum_hessian":[1.9242184E3,1.5369746E2,1.7705209E3,1.08345825E2,4.5351643E1,1.6551002E3,1.1542069E2,1.004003E2,7.9455256E0,3.5326263E1,1.0025378E1,1.9939589E2,1.4557043E3,2.039849E1,9.50222E1],"tree_param":{"num_deleted":"0","num_feature":"11","num_nodes":"15","size_leaf_vector":"1"}},{"base_weights":[3.9016022E-3,4.5545913E-2,-3.70235E-2,3.1547867E-2,3.1416777E-1,2.6103216E-1,-5.4616515E-2,1.2316807E-2,-1.7285079E-2,-3.4357637E-2,9.185192E-2,-4.2647514E-3,1.7106731E-1,-1.3825211E-1,-6.914202E-3],"categories":[],"categories_nodes":[],"categories_segments":[],"categories_sizes":[],"default_left":[0,0,0,0,0,0,0,0,0,0,0,0,0,0,0],"id":76,"left_children":[1,3,5,7,9,11,13,-1,-1,-1,-1,-1,-1,-1,-1],"loss_changes":[3.3048124E0,3.2540956E0,4.9178395E0,3.3027084E0,3.7824416E0,9.55139E0,1.0860125E1,0E0,0E0,0E0,0E0,0E0,0E0,0E0,0E0],"parents":[2147483647,0,0,1,1,2,2,3,3,4,4,5,5,6,6],"right_children":[2,4,6,8,10,12,14,-1,-1,-1,-1,-1,-1,-1,-1],"split_conditions":[1E0,1.68253E5,4.82E2,1.33191E5,5.57E2,4.74E2,5.06E2,1.2316807E-2,-1.7285079E-2,-3.4357637E-2,9.185192E-2,-4.2647514E-3,1.7106731E-1,-1.3825211E-1,-6.914202E-3],"split_indices":[1,4,0,4,0,0,0,0,0,0,0,0,0,0,0],"split_type":[0,0,0,0,0,0,0,0,0,0,0,0,0,0,0],"sum_hessian":[1.9241573E3,9.655298E2,9.586275E2,9.2655634E2,3.8973484E1,4.6405872E1,9.122217E2,7.471876E2,1.7936868E2,7.164674E0,3.180881E1,3.358669E1,1.2819184E1,2.1212257E1,8.910094E2],"tree_param":{"num_deleted":"0","num_feature":"11","num_nodes":"15","size_leaf_vector":"1"}},{"base_weights":[3.897356E-2,1.2888926E-1,1.4179334E-3,9.336319E-2,1.8073641E-1,-1.3219817E-1,1.1667963E-2,3.588213E-2,-1.5593059E-2,8.751445E-2,1.6365711E-4],"categories":[],"categories_nodes":[],"categories_segments":[],"categories_sizes":[],"default_left":[0,0,0,0,0,0,0,0,0,0,0],"id":77,"left_children":[1,3,5,7,-1,-1,9,-1,-1,-1,-1],"loss_changes":[6.4157248E0,1.4086207E1,8.762269E0,8.212123E0,0E0,0E0,5.8712626E0,0E0,0E0,0E0,0E0],"parents":[2147483647,0,0,1,1,2,2,3,3,6,6],"right_children":[2,4,6,8,-1,-1,10,-1,-1,-1,-1],"split_conditions":[5.7029E4,5.5672E4,5.8561E4,7E0,1.8073641E-1,-1.3219817E-1,6.0887E4,3.588213E-2,-1.5593059E-2,8.751445E-2,1.6365711E-4],"split_indices":[8,8,8,3,0,0,8,0,0,0,0],"split_type":[0,0,0,0,0,0,0,0,0,0,0],"sum_hessian":[1.9337786E3,5.583028E2,1.3754758E3,5.4041656E2,1.7886204E1,1.4635896E1,1.36084E3,3.6346967E2,1.7694693E2,2.6630692E1,1.3342092E3],"tree_param":{"num_deleted":"0","num_feature":"11","num_nodes":"11","size_leaf_vector":"1"}},{"base_weights":[9.008629E-3,-5.602067E-2,6.322762E-2,1.4221838E-1,-8.520247E-2,2.3504466E-2,2.633337E-1,-1.3333419E-2,8.374383E-2,-2.3316246E-2,1.4872397E-2,1.14853375E-1,1.2191233E-4,1.17850296E-1,1.9949427E-2],"categories":[],"categories_nodes":[],"categories_segments":[],"categories_sizes":[],"default_left":[0,0,0,0,0,0,0,0,0,0,0,0,0,0,0],"id":78,"left_children":[1,3,5,7,9,11,13,-1,-1,-1,-1,-1,-1,-1,-1],"loss_changes":[6.773857E0,5.0051184E0,8.064829E0,6.7533674E0,3.896646E0,1.0640418E1,8.081326E0,0E0,0E0,0E0,0E0,0E0,0E0,0E0,0E0],"parents":[2147483647,0,0,1,1,2,2,3,3,4,4,5,5,6,6],"right_children":[2,4,6,8,10,12,14,-1,-1,-1,-1,-1,-1,-1,-1],"split_conditions":[8.9804E4,3E1,5E1,5.4227E4,7.56E2,9.3073E4,1E0,-1.3333419E-2,8.374383E-2,-2.3316246E-2,1.4872397E-2,1.14853375E-1,1.2191233E-4,1.17850296E-1,1.9949427E-2],"split_indices":[8,2,2,8,0,8,7,0,0,0,0,0,0,0,0],"split_type":[0,0,0,0,0,0,0,0,0,0,0,0,0,0,0],"sum_hessian":[1.909146E3,8.59576E2,1.0495701E3,1.0341528E2,7.561607E2,8.8456024E2,1.6500983E2,5.901192E1,4.440336E1,6.3825934E2,1.1790138E2,2.8754211E1,8.55806E2,4.8753536E1,1.1625629E2],"tree_param":{"num_deleted":"0","num_feature":"11","num_nodes":"15","size_leaf_vector":"1"}},{"base_weights":[-1.9702632E-2,-6.496769E-2,2.9909555E-2,6.6078645E-3,-1.4745232E-1,3.434337E-1,-7.0450996E-4,-6.391053E-3,6.2157776E-2,2.8703624E-2,-4.0128868E-2,-0E0,8.2472816E-2,-1.0966527E-2,1.00839855E-2],"categories":[],"categories_nodes":[],"categories_segments":[],"categories_sizes":[],"default_left":[0,0,0,0,0,0,0,0,0,0,0,0,0,0,0],"id":79,"left_children":[1,3,5,7,9,11,13,-1,-1,-1,-1,-1,-1,-1,-1],"loss_changes":[4.34671E0,6.1311836E0,9.047774E0,6.6756673E0,7.5949326E0,1.7150202E0,2.310172E0,0E0,0E0,0E0,0E0,0E0,0E0,0E0,0E0],"parents":[2147483647,0,0,1,1,2,2,3,3,4,4,5,5,6,6],"right_children":[2,4,6,8,10,12,14,-1,-1,-1,-1,-1,-1,-1,-1],"split_conditions":[1.06457E5,5.7029E4,1.1386E5,5.1871E4,3.1E1,3.3E1,4E1,-6.391053E-3,6.2157776E-2,2.8703624E-2,-4.0128868E-2,-0E0,8.2472816E-2,-1.0966527E-2,1.00839855E-2],"split_indices":[8,8,8,8,2,2,2,0,0,0,0,0,0,0,0],"split_type":[0,0,0,0,0,0,0,0,0,0,0,0,0,0,0],"sum_hessian":[1.9106338E3,1.0088187E3,9.0181506E2,5.360984E2,4.727203E2,7.8585075E1,8.2323E2,4.7683408E2,5.926433E1,6.884342E1,4.038769E2,1.5522722E1,6.306235E1,4.0919315E2,4.1403683E2],"tree_param":{"num_deleted":"0","num_feature":"11","num_nodes":"15","size_leaf_vector":"1"}},{"base_weights":[-2.8481602E-3,-1.2673368E-1,8.098755E-3,7.478524E-2,-1.7788917E-1,1.8621233E-1,-3.420236E-3,-9.30334E-2,-8.282966E-3,5.610325E-2,8.21292E-3,-9.51477E-2,-0E0],"categories":[],"categories_nodes":[],"categories_segments":[],"categories_sizes":[],"default_left":[0,0,0,0,0,0,0,0,0,0,0,0,0],"id":80,"left_children":[1,3,5,-1,7,9,11,-1,-1,-1,-1,-1,-1],"loss_changes":[2.7166247E0,4.309757E0,3.784562E0,0E0,5.3970942E0,1.1525886E0,2.8435802E0,0E0,0E0,0E0,0E0,0E0,0E0],"parents":[2147483647,0,0,1,1,2,2,4,4,5,5,6,6],"right_children":[2,4,6,-1,8,10,12,-1,-1,-1,-1,-1,-1],"split_conditions":[5.13E2,1E0,5.4E2,7.478524E-2,4E0,1E0,5.42E2,-9.30334E-2,-8.282966E-3,5.610325E-2,8.21292E-3,-9.51477E-2,-0E0],"split_indices":[0,3,0,0,3,7,0,0,0,0,0,0,0],"split_type":[0,0,0,0,0,0,0,0,0,0,0,0,0],"sum_hessian":[1.9069054E3,1.579427E2,1.7489626E3,9.905094E0,1.4803761E2,1.0690579E2,1.6420569E3,4.143901E1,1.065986E2,5.7799942E1,4.910585E1,7.6491594E0,1.6344077E3],"tree_param":{"num_deleted":"0","num_feature":"11","num_nodes":"13","size_leaf_vector":"1"}},{"base_weights":[1.949887E-2,-2.2668682E-1,2.8891608E-2,-6.350123E-1,1.09113134E-1,1.5530688E-1,2.0320533E-2,-1.1225235E-2,-1.6531488E-1,-4.828704E-3,5.9947666E-2,3.0634326E-3,1.1207199E-1],"categories":[],"categories_nodes":[],"categories_segments":[],"categories_sizes":[],"default_left":[0,0,0,0,0,0,0,0,0,0,0,0,0],"id":81,"left_children":[1,3,5,7,9,-1,11,-1,-1,-1,-1,-1,-1],"loss_changes":[4.270212E0,1.0078737E1,1.1017207E1,2.475666E0,1.3219339E0,0E0,4.3567567E0,0E0,0E0,0E0,0E0,0E0,0E0],"parents":[2147483647,0,0,1,1,2,2,3,3,4,4,6,6],"right_children":[2,4,6,8,10,-1,12,-1,-1,-1,-1,-1,-1],"split_conditions":[4.74E2,3.9E1,4.79E2,3E1,2E0,1.5530688E-1,2.04017E5,-1.1225235E-2,-1.6531488E-1,-4.828704E-3,5.9947666E-2,3.0634326E-3,1.1207199E-1],"split_indices":[0,2,0,2,5,0,4,0,0,0,0,0,0],"split_type":[0,0,0,0,0,0,0,0,0,0,0,0,0],"sum_hessian":[1.9130685E3,6.214328E1,1.8509252E3,2.7376633E1,3.4766647E1,1.4578687E1,1.8363466E3,9.712223E0,1.766441E1,1.994495E1,1.4821697E1,1.8264186E3,9.927913E0],"tree_param":{"num_deleted":"0","num_feature":"11","num_nodes":"13","size_leaf_vector":"1"}},{"base_weights":[8.994675E-3,1.0611027E-1,-1.7245488E-2,-2.775645E-2,1.8527763E-1,7.083162E-2,-5.798123E-2,2.1243054E-2,-6.281098E-2,1.5431863E-2,9.206601E-2,-1.1851549E-1,2.088413E-2,-3.7160423E-2,1.5816361E-3],"categories":[],"categories_nodes":[],"categories_segments":[],"categories_sizes":[],"default_left":[0,0,0,0,0,0,0,0,0,0,0,0,0,0,0],"id":82,"left_children":[1,3,5,7,9,11,13,-1,-1,-1,-1,-1,-1,-1,-1],"loss_changes":[5.008168E0,4.6203117E0,5.436647E0,6.329079E0,7.267661E0,1.0361246E1,8.987415E0,0E0,0E0,0E0,0E0,0E0,0E0,0E0,0E0],"parents":[2147483647,0,0,1,1,2,2,3,3,4,4,5,5,6,6],"right_children":[2,4,6,8,10,12,14,-1,-1,-1,-1,-1,-1,-1,-1],"split_conditions":[5.71E2,5.11E2,7.2664E4,7E0,8E0,5.84E2,4E0,2.1243054E-2,-6.281098E-2,1.5431863E-2,9.206601E-2,-1.1851549E-1,2.088413E-2,-3.7160423E-2,1.5816361E-3],"split_indices":[0,0,4,3,3,0,3,0,0,0,0,0,0,0,0],"split_type":[0,0,0,0,0,0,0,0,0,0,0,0,0,0,0],"sum_hessian":[1.921813E3,4.1367618E2,1.5081367E3,1.5024219E2,2.63434E2,4.6800137E2,1.0401354E3,1.0211174E2,4.813044E1,1.9630731E2,6.712668E1,1.7108753E1,4.508926E2,3.5586313E2,6.842723E2],"tree_param":{"num_deleted":"0","num_feature":"11","num_nodes":"15","size_leaf_vector":"1"}},{"base_weights":[7.0397467E-3,-2.2770217E-1,2.1452045E-2,-4.769673E-1,1.13028444E-1,3.6174467E-1,1.3166262E-2,-1.3689573E-1,3.1724703E-3,1.0399672E-1,-4.7852803E-2,1.4546397E-1,-1.4244042E-2,1.2623827E-3,4.8769236E-2],"categories":[],"categories_nodes":[],"categories_segments":[],"categories_sizes":[],"default_left":[0,0,0,0,0,0,0,0,0,0,0,0,0,0,0],"id":83,"left_children":[1,3,5,7,9,11,13,-1,-1,-1,-1,-1,-1,-1,-1],"loss_changes":[6.3808517E0,9.8592205E0,4.778542E0,7.4096727E0,7.8187594E0,7.339521E0,2.5891647E0,0E0,0E0,0E0,0E0,0E0,0E0,0E0,0E0],"parents":[2147483647,0,0,1,1,2,2,3,3,4,4,5,5,6,6],"right_children":[2,4,6,8,10,12,14,-1,-1,-1,-1,-1,-1,-1,-1],"split_conditions":[1.1682E4,1.1688E5,1.4828E4,1E0,1.31563E5,9.0305E4,1.8053E5,-1.3689573E-1,3.1724703E-3,1.0399672E-1,-4.7852803E-2,1.4546397E-1,-1.4244042E-2,1.2623827E-3,4.8769236E-2],"split_indices":[8,4,8,10,4,4,4,0,0,0,0,0,0,0,0],"split_type":[0,0,0,0,0,0,0,0,0,0,0,0,0,0,0],"sum_hessian":[1.9348011E3,1.03624504E2,1.8311766E3,6.0384937E1,4.3239563E1,3.5588657E1,1.795588E3,4.2552475E1,1.7832462E1,2.0276016E1,2.2963549E1,1.8705215E1,1.6883442E1,1.7529725E3,4.2615437E1],"tree_param":{"num_deleted":"0","num_feature":"11","num_nodes":"15","size_leaf_vector":"1"}},{"base_weights":[-1.6197773E-2,4.7722843E-2,-5.5434614E-2,-2.4485568E-2,2.0143324E-1,-1.8629166E-1,-1.0705836E-2,-1.2669885E-1,1.3449879E-3,1.1963855E-2,6.2065274E-2,-2.5706742E-2,-1.3518481E-1,-1.1189579E-2,2.3110777E-2],"categories":[],"categories_nodes":[],"categories_segments":[],"categories_sizes":[],"default_left":[0,0,0,0,0,0,0,0,0,0,0,0,0,0,0],"id":84,"left_children":[1,3,5,7,9,11,13,-1,-1,-1,-1,-1,-1,-1,-1],"loss_changes":[4.820961E0,8.203489E0,6.8044796E0,9.972114E0,3.1670418E0,7.2213125E0,5.1351814E0,0E0,0E0,0E0,0E0,0E0,0E0,0E0,0E0],"parents":[2147483647,0,0,1,1,2,2,3,3,4,4,5,5,6,6],"right_children":[2,4,6,8,10,12,14,-1,-1,-1,-1,-1,-1,-1,-1],"split_conditions":[7.4149E4,1E0,1.05642E5,4.46E3,6.51E2,1.02908E5,8E0,-1.2669885E-1,1.3449879E-3,1.1963855E-2,6.2065274E-2,-2.5706742E-2,-1.3518481E-1,-1.1189579E-2,2.3110777E-2],"split_indices":[8,9,8,8,0,8,3,0,0,0,0,0,0,0,0],"split_type":[0,0,0,0,0,0,0,0,0,0,0,0,0,0,0],"sum_hessian":[1.9088514E3,7.159431E2,1.1929083E3,4.8554623E2,2.3039688E2,2.9415536E2,8.987529E2,2.0528477E1,4.6501776E2,1.0751072E2,1.2288616E2,2.7059085E2,2.356451E1,6.695432E2,2.292097E2],"tree_param":{"num_deleted":"0","num_feature":"11","num_nodes":"15","size_leaf_vector":"1"}},{"base_weights":[3.1902487E-3,7.822243E-3,-1.0472935E-1,-5.9320495E-2,3.327415E-2,8.0559915E-3,-4.883842E-2,9.004503E-2,4.9571237E-3],"categories":[],"categories_nodes":[],"categories_segments":[],"categories_sizes":[],"default_left":[0,0,0,0,0,0,0,0,0],"id":85,"left_children":[1,3,-1,5,7,-1,-1,-1,-1],"loss_changes":[4.2037525E0,3.257486E0,0E0,9.78305E0,4.4351344E0,0E0,0E0,0E0,0E0],"parents":[2147483647,0,0,1,1,3,3,4,4],"right_children":[2,4,-1,6,8,-1,-1,-1,-1],"split_conditions":[7.2E1,5.5672E4,-1.0472935E-1,3.5817E4,5.7029E4,8.0559915E-3,-4.883842E-2,9.004503E-2,4.9571237E-3],"split_indices":[2,8,0,8,8,0,0,0,0],"split_type":[0,0,0,0,0,0,0,0,0],"sum_hessian":[1.920618E3,1.9106434E3,9.974652E0,5.1255853E2,1.3980848E3,3.321257E2,1.8043285E2,2.0353083E1,1.3777318E3],"tree_param":{"num_deleted":"0","num_feature":"11","num_nodes":"9","size_leaf_vector":"1"}},{"base_weights":[1.6836338E-3,3.21673E-2,-1.24673046E-1,-1.8417355E-2,1.5401152E-1,2.7162405E-2,-4.1032556E-1,1.2822012E-2,-3.4154817E-2,-1.16413236E-1,4.7502745E-2,-1.3754688E-1,2.3774834E-2,-2.5457038E-2,-2.3450013E-1],"categories":[],"categories_nodes":[],"categories_segments":[],"categories_sizes":[],"default_left":[0,0,0,0,0,0,0,0,0,0,0,0,0,0,0],"id":86,"left_children":[1,3,5,7,9,11,13,-1,-1,-1,-1,-1,-1,-1,-1],"loss_changes":[7.3192053E0,9.742422E0,1.6383799E1,1.3972964E1,2.879969E1,1.573557E1,2.6038677E1,0E0,0E0,0E0,0E0,0E0,0E0,0E0,0E0],"parents":[2147483647,0,0,1,1,2,2,3,3,4,4,5,5,6,6],"right_children":[2,4,6,8,10,12,14,-1,-1,-1,-1,-1,-1,-1,-1],"split_conditions":[1.37948E5,1E0,1E0,9.4722E4,8.6616E4,2.0515E4,1.57371E5,1.2822012E-2,-3.4154817E-2,-1.16413236E-1,4.7502745E-2,-1.3754688E-1,2.3774834E-2,-2.5457038E-2,-2.3450013E-1],"split_indices":[4,9,9,4,4,8,4,0,0,0,0,0,0,0,0],"split_type":[0,0,0,0,0,0,0,0,0,0,0,0,0,0,0],"sum_hessian":[1.9140067E3,1.5513768E3,3.6262988E2,1.0934563E3,4.579206E2,2.374433E2,1.2518658E2,7.0688745E2,3.8656885E2,4.2393127E1,4.1552747E2,2.2063032E1,2.1538026E2,9.6498184E1,2.8688398E1],"tree_param":{"num_deleted":"0","num_feature":"11","num_nodes":"15","size_leaf_vector":"1"}},{"base_weights":[-2.5357031E-3,-3.47727E-2,6.865976E-2,-1.2090651E-2,-6.090929E-1,1.850087E-1,-2.1290507E-2,-6.2441635E-3,7.789591E-2,-1.8020193E-1,-2.9163767E-2,-1.3869489E-2,5.937932E-2,3.4269925E-2,-2.8324375E-2],"categories":[],"categories_nodes":[],"categories_segments":[],"categories_sizes":[],"default_left":[0,0,0,0,0,0,0,0,0,0,0,0,0,0,0],"id":87,"left_children":[1,3,5,7,9,11,13,-1,-1,-1,-1,-1,-1,-1,-1],"loss_changes":[4.380133E0,1.6709381E1,6.3560696E0,9.607323E0,4.9062004E0,7.8018885E0,7.7939525E0,0E0,0E0,0E0,0E0,0E0,0E0,0E0,0E0],"parents":[2147483647,0,0,1,1,2,2,3,3,4,4,5,5,6,6],"right_children":[2,4,6,8,10,12,14,-1,-1,-1,-1,-1,-1,-1,-1],"split_conditions":[7.02E2,6.95E2,7.44E2,6.87E2,1.15291E5,3.6E1,6.8462E4,-6.2441635E-3,7.789591E-2,-1.8020193E-1,-2.9163767E-2,-1.3869489E-2,5.937932E-2,3.4269925E-2,-2.8324375E-2],"split_indices":[0,0,0,0,8,2,8,0,0,0,0,0,0,0,0],"split_type":[0,0,0,0,0,0,0,0,0,0,0,0,0,0,0],"sum_hessian":[1.9130118E3,1.3282085E3,5.848033E2,1.2843319E3,4.3876617E1,2.5752847E2,3.272748E2,1.2327091E3,5.1622803E1,2.2693895E1,2.1182722E1,7.6525536E1,1.8100294E2,1.2182047E2,2.0545436E2],"tree_param":{"num_deleted":"0","num_feature":"11","num_nodes":"15","size_leaf_vector":"1"}},{"base_weights":[-3.1201562E-2,-3.9187577E-2,2.6537704E-1,-5.990249E-2,6.659589E-2,-0E0,1.0380607E-1,5.193278E-2,-1.4830313E-2,1.168892E-1,6.4528425E-4,4.9754944E-2,-2.347243E-2],"categories":[],"categories_nodes":[],"categories_segments":[],"categories_sizes":[],"default_left":[0,0,0,0,0,0,0,0,0,0,0,0,0],"id":88,"left_children":[1,3,5,7,9,11,-1,-1,-1,-1,-1,-1,-1],"loss_changes":[4.299522E0,4.0605006E0,2.8646555E0,6.9917216E0,9.146424E0,1.0664012E0,0E0,0E0,0E0,0E0,0E0,0E0,0E0],"parents":[2147483647,0,0,1,1,2,2,3,3,4,4,5,5],"right_children":[2,4,6,8,10,12,-1,-1,-1,-1,-1,-1,-1],"split_conditions":[3E0,1.43595E5,4.9572E4,2.5E1,1.45295E5,3.4E1,1.0380607E-1,5.193278E-2,-1.4830313E-2,1.168892E-1,6.4528425E-4,4.9754944E-2,-2.347243E-2],"split_indices":[5,4,4,2,4,2,0,0,0,0,0,0,0],"split_type":[0,0,0,0,0,0,0,0,0,0,0,0,0],"sum_hessian":[1.8838536E3,1.8419658E3,4.1887753E1,1.5500509E3,2.919149E2,2.3996529E1,1.7891222E1,5.9493088E1,1.4905579E3,2.5623892E1,2.66291E2,7.4314156E0,1.6565113E1],"tree_param":{"num_deleted":"0","num_feature":"11","num_nodes":"13","size_leaf_vector":"1"}},{"base_weights":[-2.5339064E-3,-1.802235E-2,1.1090081E-1,-7.3360756E-2,1.8483924E-2,2.8630987E-1,-3.5364214E-2,